tree
version=v4
num_class=1
num_tree_per_iteration=1
label_index=0
max_feature_idx=43
objective=binary sigmoid:1
feature_names=team_wr_diff team_kda_diff team_baron_diff team_dragon_diff team_games_diff team_streak_a team_streak_b team_streak_diff top_kda_diff top_mvp_diff top_part_diff top_kda_trend jgl_kda_diff jgl_mvp_diff jgl_part_diff jgl_kda_trend mid_kda_diff mid_mvp_diff mid_part_diff mid_kda_trend adc_kda_diff adc_mvp_diff adc_part_diff adc_kda_trend sup_kda_diff sup_mvp_diff sup_part_diff sup_kda_trend hero_wr_avg_a hero_wr_avg_b hero_wr_diff ph_wr_avg_a ph_wr_avg_b ph_wr_diff synergy_mean_a synergy_mean_b synergy_diff counter_mean core_wr_a core_wr_b core_wr_diff side_win_rate h2h_wr h2h_games
feature_infos=[-0.66666666666666674:0.70731707317073167] [-7.7085880877742934:11.537009999999999] [-0.82352941176470584:0.97499999999999998] [-2.3333333333333335:2.096774193548387] [-34:40] [-14:11] [-11:10] [-15:16] [-3.882352941176471:5.9000000000000004] [-2.7099999999999991:3.9000000000000004] [-67.880449999999996:73.639874193548408] [-6.8845751633986927:5.4079999999999995] [-3.6333333333333329:11.130769230769232] [-3.0592592592592585:5.1076923076923082] [-83.785657142857147:76.82952499999999] [-5.0073170731707322:7.498921568627452] [-5.375:5.5] [-4.1499999999999986:4.2780487804878051] [-78.76469318181816:76.92683000000001] [-5.8055555555555545:5.7872195121951222] [-3.9404761904761907:5.375] [-2.7666666666666657:3.1419354838709683] [-75.40239230769231:81.940425000000005] [-6.9479738562091491:4.8085213032581446] [-4.7581395348837212:5.5765957446808514] [-3.375:3.5609756097560963] [-90.928520000000006:99.499899999999982] [-6.5360210210210212:7.6518207282913178] [0.36609510269911405:0.65621118012422364] [0.3957445294125469:0.62929661579296614] [-0.19108943449110166:0.22011317060932056] [0.050000000000000003:0.95555555555555549] [0.033333333333333333:1] [-0.56333333333333335:0.6138095238095238] [0.23095238095238094:0.84749999999999992] [0.22648809523809521:0.78758234519104087] [-0.37788438014014575:0.45361131409085365] [0.30832498841529021:0.68745060202954944] [0.24285714285714285:0.79729729729729737] [0.1891891891891892:0.78260869565217384] [-0.30876756440281028:0.34305194887051221] [0.45114006514657978:0.54885993485342022] [0:1] [0:30]
tree_sizes=2079 2530 2981 2760 2449 2654 2347 3188 2531 2353 2549 2031 2351 2556 2455 2116 2244 2336 2249 2344 2678 2042 2347 2345 2779 2461 2147 2468 2357 2675 2359 2142 2360 2350 2258 2331 2249 1936 2048 2357 2146 2359 2023 2558 1938 2034 2447 2248 2134 1817 2549 1626 1940 2145 2466 2259 1834 2208 1712 2232 1820 2172 2248 1518 1841 2047 1521 2469 2152 1309 1846 2261 1937 2264 1936 1511 1712 2155 2650 1095 1725 1482 1726 1305 2156 1503 2039 2156 1311 1305 2252 1615 1919 1095 1945 1422 2783 1499 1303 1725 1714 1839 1805 1506 1214 1783 1518 2455 1318 1389 2563 1510 2859 1517 2986 2159 2172 2047 1953 1631 2251 1832 1631 1946 2226 2274 1514 2537 1391 1627 1302 2457 2370 1523 2346 2363 3100 1210 1610 1824 2351 3078 1588 1093 2432 1720 1300 1520 2357 1299 2243 2256 2009 1620 2363 2250 2542 1830 2426 1812 1206 1518 3070 2253 2355 2140 1930 1926 2255 2469 1729 1830 2379 2321 2045 2791 2263 981 2483 979 1079 2968 1521 1519 2465 2132 1836 2338 1501 1179 2556 2437 1273 1724 2324 1403 2246 2247 1943 2637 2440 1315 1813 1835 1936 1936 1518 2735 2352 1604 2551 1144 2269 1623 1622 1838 2245 1612 2237 1519 2032 1992 1520 2336 2438 2262 1733 2313 2229 1289 1623 1514 2352 1945 1378 2163 1195 1726 2134 1522 2334 2537 2991 1206 2042 2107 1917 2051 1186 2328 1841 2015 2437 1206 3408 2236 2253 1312 2260 1310 2043 2884 2340 2223 1939 1605 1306 2368 1395 1596 1473 2455 2048 2129 2968 2052 2158 1502 1601 2015 2775 1821 2117 2293 1942 1887 1400 2144 2018 1991 1935 1986 1205 2143 1202 1415 1416 1630 1942 1921

Tree=0
num_leaves=19
num_cat=0
split_feature=12 11 26 3 29 4 31 13 28 19 28 27 0 35 29 2 31 29
split_gain=42.0141 14.5233 10.0619 11.0216 10.5973 10.0581 9.34455 7.68392 7.86122 7.21714 7.92392 7.91227 6.09153 9.05468 5.91416 4.20095 2.13416 2.15466
threshold=0.71187396112819845 -3.8308613520682484 8.3554142188246434 -0.3116775599128539 0.50032119549759246 20.000000000000004 0.44849206349206355 0.017609836557207718 0.49797599790661712 2.480207929325577 0.52528960766879362 2.7032581553199706 0.080354394006773175 0.51198981327970705 0.51103711576154709 -0.44465608465608458 0.64734432234432238 0.51153641949425555
decision_type=2 2 2 2 2 2 2 2 2 2 2 2 2 2 2 2 2 2
left_child=1 -1 3 6 -5 9 -3 15 -9 10 11 -2 13 -7 -12 -4 17 -14
right_child=5 2 7 4 -6 12 -8 8 -10 -11 14 -13 16 -15 -16 -17 -18 -19
leaf_value=0.19471389699463845 0.13707770790121779 0.07270514005526646 0.13084428486103258 0.10271597505295915 0.12970255317012705 0.17698251796689476 0.10950547902380266 0.063809872114638691 0.14445076120046593 0.19552341462900535 0.17740013267159821 0.087712066001605207 0.18562956957119264 0.080916402822041489 0.13014107376624165 0.18730289272500703 0.20703993304753021 0.13755262943447599
leaf_weight=3.5139874517917624 65.71952398121357 19.007052421569824 3.0170048028230676 40.592641219496727 55.456870540976524 4.0117503404617336 28.087714061141014 2.9553696215152732 5.0384838283061981 3.7316611856222144 12.937153667211534 5.5370269566774359 5.5354664772748929 2.4263990223407745 6.0340096056461325 5.9708139449357995 5.8771908134222031 2.3015681803226471
leaf_count=16 285 78 13 171 239 18 119 12 22 17 58 23 25 10 26 27 27 10
internal_value=0.12862 0.115624 0.113826 0.110366 0.118235 0.147223 0.0944701 0.142723 0.114633 0.14165 0.139312 0.133238 0.172845 0.139908 0.162218 0.168085 0.187862 0.172237
internal_weight=277.752 163.64 160.126 143.144 96.0495 114.112 47.0948 16.9817 7.99385 93.9594 90.2277 71.2566 20.1524 6.43815 18.9712 8.98782 13.7142 7.83703
internal_count=1196 697 681 607 410 499 197 74 34 409 392 308 90 28 84 40 62 35
is_linear=0
shrinkage=1


Tree=1
num_leaves=23
num_cat=0
split_feature=12 18 4 11 16 19 10 32 33 30 31 37 11 32 41 6 41 18 31 31 38 40
split_gain=38.7403 13.9794 11.1362 10.3862 9.46317 8.16272 9.14244 8.61353 7.01435 9.39714 6.76316 6.41504 5.54865 7.77574 3.08979 3.03987 6.7867 2.94395 7.84437 2.40607 1.72143 0.657745
threshold=0.71187396112819845 4.6256349219050614 1.5000000000000002 -3.5886226203807383 2.5733088235294113 2.1292788461538463 5.1579629986765143 0.32797924297924302 0.22650793650793652 0.0018808446444211759 0.70333333333333348 0.40439633497708727 1.9506948933419521 0.60769841269841274 0.47228622631848444 1.5000000000000002 0.52264282063210377 7.7359636335209467 0.56474025974025988 0.66697860962566857 0.52232563115104846 0.017735053919806818
decision_type=2 2 2 2 2 2 2 2 2 2 2 2 2 2 2 2 2 2 2 2 2 2
left_child=1 3 12 14 5 6 7 -2 11 -10 -8 -5 13 -3 -1 21 -17 18 -7 20 -6 -4
right_child=4 2 15 8 19 17 10 -9 9 -11 -12 -13 -14 -15 -16 16 -18 -19 -20 -21 -22 -23
leaf_value=0 -0.035547266774450824 -0.047365064436818108 0.071642719474198979 0.016063272420397033 0.049024262801968491 0.070537444873545407 -0.020565697164670067 0.018520833246180084 0.04748430541792277 -0.025841792942037235 0.030742043127651785 -0.030382337961218777 0.027039332901732875 0.013432395915911936 0.056885100350683018 -0.029253163531929447 0.057891342146551394 0.070064564739399829 -0.015449883451739584 0.070736420784004009 0.0060474258742746513 0.035408014080409951
leaf_weight=3.2307862043380728 5.0058258324861518 8.6910217106342369 3.4805194139480573 4.7945329993963233 3.5378251224756223 3.0408865958452207 26.336303278803829 56.402759626507759 4.6648503094911558 6.6329082101583481 4.7222365736961356 112.18264392018318 4.2931126505136481 5.2585148215293875 2.8556487411260605 2.6139401495456696 2.8624709695577621 3.8982207477092743 3.507941409945488 4.5506238639354706 2.9825394302606583 2.2360242754220963
leaf_count=14 21 36 16 21 16 14 112 248 21 28 21 472 19 23 13 11 13 18 15 21 13 10
internal_value=-0.00513993 -0.017607 0.00723599 -0.0230806 0.0127399 0.00888699 0.00502926 0.0139977 -0.0255231 0.00423462 -0.0125627 -0.0284324 -0.0118643 -0.0242292 0.0273292 0.0385499 0.0158005 0.0422812 0.0243363 0.0477981 0.0303583 0.0590096
internal_weight=277.782 163.797 29.4356 134.361 113.985 102.914 92.4671 61.4086 128.275 11.2978 31.0585 116.977 18.2426 13.9495 6.08643 11.193 5.47641 10.447 6.54883 11.071 6.52036 5.71654
internal_count=1196 697 128 569 499 449 402 269 542 49 133 493 78 59 27 50 24 47 29 50 29 26
is_linear=0
shrinkage=0.04


Tree=2
num_leaves=27
num_cat=0
split_feature=0 26 18 4 31 34 21 6 36 2 3 35 23 36 22 38 41 13 0 5 32 28 15 36 31 37
split_gain=31.9223 14.6258 14.5991 8.86812 8.19361 10.5694 14.4339 9.60997 9.97691 7.90049 7.10905 11.576 15.7937 7.01465 9.76938 6.6948 6.66841 6.60666 6.42285 6.41411 4.76602 5.94782 4.63941 4.41476 3.7968 0.929941
threshold=0.046968524251805983 11.150547357947653 6.2385489456911083 2.5000000000000004 0.53920807453416153 0.55226098901098908 0.46158293460924954 -1.4999999999999998 -0.010920826513911684 0.027350427350427368 -0.3116775599128539 0.45710090383346208 -1.2659919637245218 0.018609257192050258 1.0135742757936443 0.53987781981479466 0.4606665967406165 0.057634408602150973 0.14690873819163297 -1.4999999999999998 0.41939560439560447 0.50510587218941227 -1.452808326483396 0.052406868050250473 0.3195238095238096 0.55477542410061209
decision_type=2 2 2 2 2 2 2 2 2 2 2 2 2 2 2 2 2 2 2 2 2 2 2 2 2 2
left_child=1 10 4 9 5 6 -2 19 -9 -4 11 12 -1 14 -12 -15 23 -3 -11 -6 -19 -22 -7 -5 -13 -18
right_child=2 17 3 16 7 22 -8 8 -10 18 13 24 -14 15 -16 -17 25 20 -20 -21 21 -23 -24 -25 -26 -27
leaf_value=-0.078711878729090412 -0.049300167176361355 0.061829743705382877 0.058761369807283997 0.050832384294268257 -0.013294663232870039 0.071198238971077188 0.015310680614278316 0.021608410568896882 -0.023016645677748037 0.017865724952167011 0.011866303533530905 -0.07027412851341848 0.036111124184317001 -0.036698111153058634 -0.023719543930905709 0.0020020117380433479 0.068308638418397349 -0.041841509875163711 -0.044949364988323311 0.036215676079870598 -0.014818078046936219 0.058513876048989881 0.0035835640319476594 -0.022944842611157777 -0.036619862851149203 0.03335957712402262
leaf_weight=2.4941697120666504 16.19995757937432 4.3647858500480643 3.4947668612003318 2.1953699886798885 4.9128172397613552 2.3973604291677475 8.1953927427530271 13.616278439760206 19.09290586411953 5.6906813085079175 27.048894196748734 6.932551607489585 7.1912044435739499 28.684197902679443 22.448710739612579 9.247720077633856 12.347409129142759 2.6463786661624891 4.5749006271362305 23.279662981629372 3.5098033398389816 3.2852536290884018 5.0712238103151313 2.8231384307146072 33.768941089510918 2.2240924537181845
leaf_count=10 67 20 16 10 21 11 36 60 81 25 118 28 32 120 95 40 57 11 19 104 15 15 22 12 141 10
internal_value=-0.00492203 -0.0172943 0.00992278 0.0325844 0.00170627 -0.0146491 -0.0274576 0.010339 -0.00430883 0.00754341 -0.0212424 -0.0332637 0.00563102 -0.0142386 -0.00420762 -0.0271775 0.0498428 0.0216981 -0.00990577 0.0274301 0.00227233 0.0203905 0.0264698 0.00891044 -0.0426083 0.0635106
internal_weight=277.739 151.623 126.116 33.3504 92.7656 31.8639 24.3954 60.9017 32.7092 13.7603 137.816 50.3869 9.68537 87.4295 49.4976 37.9319 19.59 13.8062 10.2656 28.1925 9.44144 6.79506 7.46858 5.01851 40.7015 14.5715
internal_count=1196 645 551 149 402 136 103 266 141 60 584 211 42 373 213 160 89 61 44 125 41 30 33 22 169 67
is_linear=0
shrinkage=0.04


Tree=3
num_leaves=25
num_cat=0
split_feature=12 18 4 28 11 1 34 1 19 42 18 6 1 15 28 32 38 34 17 4 34 24 24 40
split_gain=33.8248 12.3378 9.8097 9.59936 8.57032 8.45981 11.4049 8.67283 7.18385 6.5499 6.90479 6.34026 6.32839 5.98704 5.80672 5.95995 5.36815 5.30775 6.50982 3.73382 3.45289 3.74643 3.27136 2.21773
threshold=0.69626665836343238 4.6256349219050614 1.5000000000000002 0.52620553877066645 -3.8308613520682484 3.3058937971742761 0.50569617900683916 2.8094795391623886 0.94118116145979924 0.60769230769230786 -5.9310415408588772 -1.4999999999999998 -0.61504150159489723 4.1709152060470513 0.55931389748964844 0.49980158730158736 0.55977725350219865 0.44373477764925134 0.3609340659340648 2.5000000000000004 0.54249701497397662 -1.3699477351916378 1.427705931495405 -0.014087345920467507
decision_type=2 2 2 2 2 2 2 2 2 2 2 2 2 2 2 2 2 2 2 2 2 2 2 2
left_child=1 4 17 5 -1 7 22 12 -8 13 -11 -9 -2 -6 16 -16 23 -3 -19 -18 21 -4 -7 -5
right_child=3 2 20 14 9 6 8 11 -10 10 -12 -13 -14 -15 15 -17 19 18 -20 -21 -22 -23 -24 -25
leaf_value=0.051173309649042625 -0.018719942730643389 0.034988570722812355 0.0024997186062345289 0.025708789090715462 -0.0297337175715492 0.071014218511616337 -0.021089276947475123 -0.0075609790678266243 0.032891880542379785 0.043015508349264979 -0.014021516625020497 -0.073942396691206683 0.012448661871176008 0.029045308016302056 -0.043872422087390589 0.039410421059609041 -0.016264138223342474 0.0097964698530090231 -0.042926861290132734 0.044673151199584302 -0.0031516322629279413 0.064101158951453185 0.031429418234107602 0.071126508862717389
leaf_weight=2.4018443077802649 14.347395673394201 3.1386195421218934 2.2928702533245078 2.6859764009714153 97.691197782754898 5.8416159451007834 10.346639245748522 5.3357681632041931 6.2332320362329474 3.798963978886607 25.375763610005379 4.2018297761678678 36.944921731948853 2.7088236063718787 2.6354986876249304 2.6561488807201385 3.0405297875404349 6.1812115907669059 8.9163177311420423 3.0942259132862091 2.5423430800437918 6.2863878309726706 9.8209370076656324 9.070898577570917
leaf_count=11 61 14 10 12 410 27 44 23 28 17 108 17 162 12 11 12 13 27 37 14 11 29 44 42
internal_value=-0.00472229 -0.016581 0.00674983 0.0117004 -0.0218023 0.00589516 0.0224395 -0.00283083 -0.000479629 -0.0232243 -0.00633628 -0.0376844 0.00363294 -0.0280807 0.0347092 -0.001371 0.045551 -0.0111361 -0.0211553 0.0140532 0.0362719 0.0483171 0.0468039 0.0613921
internal_weight=277.59 161.334 29.3578 116.256 131.977 93.0723 32.2424 60.8299 16.5799 129.575 29.1747 9.5376 51.2923 100.4 23.1833 5.29165 17.8916 18.2361 15.0975 6.13476 11.1216 8.57926 15.6626 11.7569
internal_count=1196 686 128 510 558 406 143 263 72 547 125 40 223 422 104 23 81 78 64 27 50 39 71 54
is_linear=0
shrinkage=0.04


Tree=4
num_leaves=22
num_cat=0
split_feature=12 11 24 28 1 34 1 27 31 19 19 40 1 32 6 28 32 38 37 24 40
split_gain=31.2226 11.4692 8.46104 8.32084 7.56174 10.6042 8.1909 7.48094 8.55461 7.8068 6.64757 6.57555 6.30088 5.99705 5.82071 5.30775 5.51185 4.93402 4.98907 3.06964 2.05384
threshold=0.71187396112819845 -3.8308613520682484 -0.06547619047619023 0.52620553877066645 3.3058937971742761 0.50569617900683916 2.8094795391623886 -2.2120764119601328 0.70059523809523816 -1.6876950141000928 0.1209671509640904 -0.095709103968314765 -0.61504150159489723 0.26428571428571435 -1.4999999999999998 0.55931389748964844 0.49980158730158736 0.55977725350219865 0.52254714377750389 1.427705931495405 -0.014087345920467507
decision_type=2 2 2 2 2 2 2 2 2 2 2 2 2 2 2 2 2 2 2 2 2
left_child=1 -1 7 4 6 19 12 9 -9 -3 -7 -4 -2 -13 -8 17 -17 20 -19 -6 -5
right_child=3 2 11 15 5 10 14 8 -10 -11 -12 13 -14 -15 -16 16 -18 18 -20 -21 -22
leaf_value=0.055222304862847106 -0.017958180419328264 -0.017042578771593122 0.055411112033149038 0.024783873384309697 0.068784408648342829 -0.029605117714742911 -0.0072597308815126075 -0.037221704963473164 0.006214490171869853 0.050525937966953885 0.021235941324478064 0.053294355527542282 0.0134231936693804 -0.011990876907986574 -0.070845989405787443 -0.042060802475250549 0.038057975468661194 0.054447657221927334 -0.016867564932683404 0.030287331614005479 0.06880679572375914
leaf_weight=3.4480988085269919 14.361688166856764 10.859454333782194 2.4270956218242636 2.6786475181579616 5.7939245253801337 7.1302465498447445 5.3389756679534912 59.056050777435303 8.0631481260061246 3.5459773689508429 9.4404287040233594 2.2040515691041938 34.572064220905304 74.288617894053459 4.2141306996345502 2.6431909203529349 2.6443095207214355 2.6309195458888999 3.4933774769306183 9.7880549579858762 8.7742286622524279
leaf_count=16 61 46 11 12 27 30 23 246 35 16 42 10 152 317 17 11 12 12 15 44 41
internal_value=-0.00452731 -0.0157016 -0.0172842 0.0115721 0.00606153 0.0216243 -0.00244799 -0.0263367 -0.0319426 0 -0.000447031 -0.00786085 0.00411358 -0.00999041 -0.036167 0.0331211 -0.00128779 0.0436469 0.0135085 0.0452043 0.0591604
internal_weight=277.397 163.892 160.444 113.504 90.6395 32.1527 58.4869 81.5246 67.1192 14.4054 16.5707 78.9198 48.9338 76.4927 9.55311 22.8647 5.2875 17.5772 6.1243 15.582 11.4529
internal_count=1196 697 681 499 396 143 253 343 281 62 72 338 213 327 40 103 23 80 27 71 53
is_linear=0
shrinkage=0.04


Tree=5
num_leaves=24
num_cat=0
split_feature=12 18 4 11 4 10 35 17 35 16 26 16 33 37 34 17 25 31 35 34 24 40 15
split_gain=28.7965 11.0131 8.96292 8.39576 8.00527 7.22512 10.8798 9.35302 7.77496 6.59269 6.38262 6.40974 6.04032 5.66983 4.86688 6.07181 3.98433 3.87723 5.08826 3.21859 3.41449 2.48212 2.4194
threshold=0.71187396112819845 4.6256349219050614 1.5000000000000002 -3.5886226203807383 24.500000000000004 5.1123295008694862 0.44964646464646468 0.25695871928386321 0.61336080999025222 0.71265704419716991 5.9833841916839186 -1.501266233766233 0.24242202242202249 0.49754579834671059 0.44373477764925134 0.3609340659340648 -1.0000000180025095e-35 0.64734432234432238 0.51652607800876738 0.54249701497397662 -1.3699477351916378 0.020045944892846394 1.356638198757764
decision_type=2 2 2 2 2 2 2 2 2 2 2 2 2 2 2 2 2 2 2 2 2 2 2
left_child=1 3 14 21 5 6 7 -2 -8 16 12 -12 -5 -11 -3 -16 -7 18 22 20 -4 -1 -6
right_child=4 2 19 10 17 9 8 -9 -10 13 11 -13 -14 -15 15 -17 -18 -19 -20 -21 -22 -23 -24
leaf_value=0.054145779921278225 0.035866561196743071 0.034172517072895786 0.0031732833408407829 -0.028733988031397231 0.066428653322815431 0.013679102833657744 0.031297024518050692 -0.029495081364297696 -0.014531778095384303 0.032640335404543731 0.055270065013464091 -0.010339585096323496 0.0067851927136776923 -0.011498442821888874 0.010243383679397223 -0.040654167154898641 -0.038585240983448017 0.06597762135849991 -0.015269957943765008 -0.0026435037703249099 0.06220215743277694 0.0016134231071936143 0.014360381394304532
leaf_weight=2.6203453540801993 4.6467228680849102 3.1327403634786668 2.2925447672605506 99.525741755962372 3.413885146379469 2.7239236831665048 40.603375539183617 12.993241682648657 6.7427870929241172 8.0235971361398715 2.632438093423846 18.30667120218277 8.0680021941661817 10.659557074308394 6.183977782726287 8.9233309030532819 11.739578336477276 5.2882516533136359 3.4982042759656906 2.5438926815986624 6.2370919883251181 3.4196159094572067 2.9161954075098038
leaf_count=12 21 14 10 417 16 12 182 55 29 36 12 78 35 46 27 37 49 25 15 11 29 15 13
internal_value=-0.00434182 -0.0150668 0.00703036 -0.0199116 0.011143 0.00689946 0.0146655 -0.0119469 0.0246692 -0.0082043 -0.0220979 -0.0016776 -0.0260296 0.00731713 -0.0100325 -0.0196265 -0.0284413 0.0382016 0.0223394 0.0353321 0.0470209 0.0255659 0.0436599
internal_weight=277.136 163.886 29.3136 134.573 113.249 98.1328 64.9861 17.64 47.3462 33.1467 128.533 20.9391 107.594 18.6832 18.24 15.1073 14.4635 15.1165 9.82828 11.0735 8.52964 6.03996 6.33008
internal_count=1196 697 128 569 499 430 287 76 211 143 542 90 452 82 78 64 61 69 44 50 39 27 29
is_linear=0
shrinkage=0.04


Tree=6
num_leaves=21
num_cat=0
split_feature=12 11 18 28 19 31 37 26 33 29 15 12 33 13 28 15 38 37 40 36
split_gain=26.5657 10.1799 9.13998 7.51778 7.20899 7.76062 8.97966 6.51637 7.28955 6.45114 14.188 11.2275 6.14745 5.18661 4.86992 5.72471 4.66788 4.58319 1.90863 0.837642
threshold=0.71187396112819845 -3.8308613520682484 4.6256349219050614 0.52620553877066645 2.2243713639301883 0.697420634920635 0.44410918989855719 12.77970241710044 -0.17336996336996333 0.50821071937187801 -1.3807135427501562 -2.6310962784646992 0.17948221712927598 0.6418048442438683 0.55931389748964844 0.13319852941176483 0.55977725350219865 0.52254714377750389 -0.014087345920467507 0.068227232443690125
decision_type=2 2 2 2 2 2 2 2 2 2 2 2 2 2 2 2 2 2 2 2
left_child=1 -1 9 4 5 12 -7 8 -4 11 -11 -3 -2 -6 16 -16 18 -18 -5 -15
right_child=3 2 7 14 13 6 -8 -9 -10 10 -12 -13 -14 19 15 -17 17 -19 -20 -21
leaf_value=0.052817323543458992 0.0012802888800544107 0.035591662647888093 -0.04060229601767687 0.02345621783663708 -0.011121026253598851 -0.034225346947590878 0.037342409393447067 0.055392407910873985 0.009645069215302348 0.021320294541484552 -0.022587293685976846 -0.031966383803848843 -0.029486838021303249 0.066825989589155629 -0.043304020526590534 0.03847602591417397 0.051688580682607406 -0.01685644581170246 0.066118839380558875 0.030055246384846634
leaf_weight=3.3992479145526877 49.654178023338318 4.0335913449525824 6.005237549543387 2.6634518951177624 2.3136104345321638 3.2924100160598782 15.257452249526976 3.4425912499427787 18.749951586127281 16.209485709667206 41.77662393450737 70.172819316387177 12.969053104519842 4.6739940643310547 2.6299268603324881 2.6389831751585007 2.6052414923906317 3.4912212044000626 8.6344574093818682 2.1919490993022919
leaf_count=16 216 18 25 12 10 14 69 16 82 71 176 293 55 22 11 12 12 15 41 10
internal_value=-0.00416333 -0.0144636 -0.0159464 0.0107286 0.00549219 0.00162062 0.02431 0.00459948 -0.00249757 -0.0203595 -0.0102289 -0.0281974 -0.00506456 0.0389103 0.0313134 -0.00164496 0.0414777 0.0121513 0.0567062 0.0562611
internal_weight=276.805 163.79 160.39 113.016 90.3526 81.1731 18.5499 28.1978 24.7552 132.193 57.9861 74.2064 62.6232 9.17955 22.6633 5.26891 17.3944 6.09646 11.2979 6.86594
internal_count=1196 697 681 499 396 354 83 123 107 558 247 311 271 42 103 23 80 27 53 32
is_linear=0
shrinkage=0.04


Tree=7
num_leaves=29
num_cat=0
split_feature=12 18 4 28 36 15 29 14 26 3 34 29 24 35 21 3 11 32 28 15 38 37 37 34 24 15 35 40
split_gain=24.5837 9.60065 8.09276 7.55713 7.92117 6.96991 13.2261 7.4104 7.33791 6.53145 6.96831 6.89677 6.27305 8.16763 7.76939 4.75533 4.74233 5.68253 4.66344 5.29641 4.5157 4.26782 4.12561 2.97932 3.19 2.86929 2.7017 1.85448
threshold=0.69626665836343238 4.6256349219050614 1.5000000000000002 0.52620553877066645 0.12413107283429338 -1.5276139657444001 0.50888521243992335 -6.006424954123097 3.3097118358395936 -0.3116775599128539 0.58986414370035078 0.47467096592439434 0.69389882855441976 0.61336080999025222 0.45122100122100101 0.34786619128649759 0.82159774436090205 0.60769841269841274 0.55931389748964844 0.13319852941176483 0.55977725350219865 0.52254714377750389 0.47445082254539067 0.54249701497397662 -1.3699477351916378 1.6890458937198072 0.40852370334979032 -0.014087345920467507
decision_type=2 2 2 2 2 2 2 2 2 2 2 2 2 2 2 2 2 2 2 2 2 2 2 2 2 2 2 2
left_child=1 5 16 4 12 6 8 -8 -1 11 -11 -7 14 -14 -2 25 17 -3 20 -20 27 -22 -18 24 -4 -6 -17 -5
right_child=3 2 23 18 15 9 7 -9 -10 10 -12 -13 13 -15 -16 26 22 -19 19 -21 21 -23 -24 -25 -26 -27 -28 -29
leaf_value=-0.041626713441817093 -0.022588010402431077 -0.053227787354366091 0.0025662777047529527 0.022623086231237637 -0.066110202814926813 0.0074715758077036846 -0.024033780643613726 0.038931419227728629 0.015458200381006046 -0.01086088928507992 -0.048499570779773835 -0.045291307339607782 0.022480135870760313 -0.023230144682456974 0.025282950810253332 0.035934593606927558 0.053619490163719218 0.014987408227310451 -0.041532769730079071 0.037171935441983911 0.050069817904098736 -0.016176334792273171 -0.0054986520944874584 -0.0028577427107733806 0.059792532561550572 -0.0087937941699379775 -0.023929753575818623 0.064659849918168755
leaf_weight=13.29048050940037 16.961069226264957 5.8642960190773064 2.2876740694046012 2.6549333482980755 4.4163429737091047 4.3980093747377387 3.807328686118125 12.059063643217085 4.7481789439916602 54.787364974617958 9.2396195083856565 29.600058227777481 49.50554084777832 6.9904931187629691 7.8031677156686774 2.2303134500980377 2.4128551781177503 2.7340432703495026 2.6365209370851508 2.6260722875595093 2.5855195671319953 3.4965757131576538 7.2033820003271103 2.5412010401487342 6.1481849551200858 2.3245989382266998 2.3572706878185272 8.7364658415317553
leaf_count=55 72 24 10 12 18 19 16 54 21 233 38 122 221 30 35 10 11 12 11 12 12 15 31 11 29 10 10 42
internal_value=-0.00399324 -0.0140916 0.00654666 0.0100806 0.00494024 -0.01869 -0.00291121 0.0235158 -0.0263778 -0.0240982 -0.016422 -0.0383467 0.00935181 0.0167225 -0.00730206 -0.0261592 -0.00963233 -0.0311544 0.0307256 -0.00155184 0.0406279 0.0116925 0.00932246 0.0335987 0.0449541 -0.047347 0.00446648 0.0554928
internal_weight=276.447 161.122 29.1916 115.325 92.5888 131.93 33.9051 15.8664 18.0387 98.0251 64.027 33.9981 81.2603 56.496 24.7642 11.3285 18.2146 8.59834 22.7361 5.26259 17.4735 6.0821 9.61624 10.9771 8.43586 6.74094 4.58758 11.3914
internal_count=1196 686 128 510 406 558 146 70 76 412 271 141 358 251 107 48 78 36 104 23 81 27 42 50 39 28 20 54
is_linear=0
shrinkage=0.04


Tree=8
num_leaves=23
num_cat=0
split_feature=12 11 18 17 19 10 30 4 1 29 15 12 34 43 30 34 27 35 40 39 26 18
split_gain=22.7003 9.11962 7.97555 7.25955 6.86006 6.8191 7.07053 6.01424 5.80392 5.47081 12.4323 10.321 5.3674 6.76657 5.27218 4.4125 2.81925 2.5625 2.5456 2.4777 1.16349 0.693462
threshold=0.69626665836343238 -3.8308613520682484 4.6256349219050614 1.3106356388709328 2.1292788461538463 5.1579629986765143 -0.038781335543503208 1.5000000000000002 3.6751213741028721 0.50852105565863404 -1.3807135427501562 -2.6310962784646992 0.51502386971380421 3.5000000000000004 0.020560434346360266 0.44373477764925134 0.52508850931677042 0.50986035784327799 0.051380376380376382 0.52567473426369138 74.072064705882369 -1.4514420963270991
decision_type=2 2 2 2 2 2 2 2 2 2 2 2 2 2 2 2 2 2 2 2 2 2
left_child=1 -1 9 4 5 6 -2 15 -7 11 -11 -3 18 14 -14 -4 -6 -9 20 -15 -5 -18
right_child=3 2 7 12 16 8 -8 17 -10 10 -12 -13 13 19 -16 -17 21 -19 -20 -21 -22 -23
leaf_value=0.050648163333055447 -0.023186889834694548 0.034780979717629681 0.032926137295669559 0.067617422164208685 0 -0.028640863616242022 0.016080945760137438 0.046892931078696493 0.0073252875927776167 0.019741617597185863 -0.021616628417914306 -0.030061635533924509 -9.995292613675425e-05 -0.054447154759121659 0.063525821741669666 -0.018396460345992616 0.028624570783195056 0.0046698570306063069 0.013237702143314923 0.0014606769283213186 0.028064691793759179 0.063678864705034172
leaf_weight=3.3419949859380713 8.6425595730543119 4.0258354991674414 3.1185439079999986 6.7978785037994403 2.2484145760536176 18.018105790019039 43.887544080615044 5.6155149042606336 11.58990193903446 16.179780945181847 40.125239089131355 69.159995317459106 3.8421495109796506 2.4091704934835434 4.1514217257499695 15.072788566350935 2.1783033758401871 4.2703286856412888 2.8866099119186392 2.283865824341774 2.1670118272304535 3.9526953250169754
leaf_count=16 37 18 14 32 10 76 195 26 51 71 169 289 17 10 20 64 10 19 13 10 10 19
internal_value=-0.00383866 -0.0135464 -0.0149646 0.00970327 0.00440604 0.000819112 0.00951259 0.00423302 -0.0144502 -0.0191581 -0.0096471 -0.0263976 0.0289844 0.010366 0.0328262 -0.00924763 0.0386704 0.0292841 0.0483266 -0.0269422 0.058913 0.0525255
internal_weight=275.966 160.91 157.568 115.056 90.5175 82.1381 52.5301 28.0772 29.608 129.491 56.305 73.1858 24.5381 12.6866 7.99357 18.1913 8.37941 9.88584 11.8515 4.69304 8.96489 6.131
internal_count=1196 686 670 510 398 359 232 123 127 547 240 307 112 57 37 78 39 45 55 20 42 29
is_linear=0
shrinkage=0.04


Tree=9
num_leaves=21
num_cat=0
split_feature=0 33 26 16 22 27 23 16 41 13 13 41 32 28 29 11 33 29 33 28
split_gain=20.918 10.5055 9.77594 8.14097 5.99721 5.99386 6.03089 8.29255 5.87153 5.51599 5.31966 4.73979 3.83969 5.28135 3.77501 3.00961 2.41215 2.10165 0.960452 0.714124
threshold=0.046968524251805983 -0.1612280701754385 11.150547357947653 2.5733088235294113 -64.209010256410252 2.867094017094018 1.5831547619047619 0.090628581944371525 0.53323886810074794 -0.54374007936507984 0.057634408602150973 0.52133502197185266 0.41939560439560447 0.50510587218941227 0.50888521243992335 3.3036701936872315 0.095959318459318446 0.49487658658299327 0.1836538461538462 0.51014728540374188
decision_type=2 2 2 2 2 2 2 2 2 2 2 2 2 2 2 2 2 2 2 2
left_child=2 11 5 4 16 6 7 -1 -6 -8 -4 14 -12 -14 -2 17 -3 -7 19 -5
right_child=1 3 10 18 8 15 9 -9 -10 -11 12 -13 13 -15 -16 -17 -18 -19 -20 -21
leaf_value=-0.02574641751091148 -0.03885035218174146 -0.0030337658614385727 0.055262941907643928 0.046951672943424436 0.0049910012869633915 -0.026557748835757015 0.046311922758397267 -0.001788774355330748 0.027145497955256604 -0.0049164366989753946 -0.038489608155709509 -0.06802193059904324 -0.015561170430826776 0.053956815339185005 0.021036340376489743 -0.0090586302998079144 -0.061384563448902238 -0.068446884719970305 0.062256163750280272 0.012072621573894157
leaf_weight=70.347963497042656 3.3453088849782926 2.330321490764617 4.2090458869934073 2.5297975838184339 74.515300154685974 3.5820373445749265 4.2302965521812466 34.982887074351311 26.005269572138786 14.588543072342871 2.6383027583360654 3.4587898552417755 3.4882356822490692 3.2245939075946808 3.1227567046880722 3.5185693651437751 2.4570174366235733 6.1930089741945267 4.511889174580574 2.1996707022190094
leaf_count=296 14 10 20 12 328 15 19 151 117 63 11 14 15 15 14 15 10 25 22 10
internal_value=-0.00368059 0.00843608 -0.0136941 0.011889 0.00865885 -0.0169075 -0.0141023 -0.0178367 0.0107835 0.00657171 0.0184684 -0.0307307 0.00107407 0.0175474 -0.00944821 -0.0425055 -0.034443 -0.0539262 0.0477827 0.0321436
internal_weight=275.48 124.476 151.003 114.549 105.308 137.443 124.15 105.331 100.521 18.8188 13.5602 9.92686 9.35113 6.71283 6.46807 13.2936 4.78734 9.77505 9.24136 4.72947
internal_count=1196 551 645 509 465 584 529 447 445 82 61 42 41 30 28 55 20 40 44 22
is_linear=0
shrinkage=0.04


Tree=10
num_leaves=23
num_cat=0
split_feature=12 11 24 20 27 17 19 10 32 9 13 25 34 43 30 34 27 39 40 9 24 32
split_gain=19.8946 8.27636 6.60143 6.60885 6.44771 6.39056 6.30554 6.21698 8.31672 5.74647 6.89734 5.73757 4.9674 6.13841 5.03491 4.06117 2.66693 2.5998 2.38227 2.26052 0.976296 0.887834
threshold=0.69626665836343238 -3.8308613520682484 -0.06547619047619023 -2.379166666666666 -1.2563980027315986 1.3106356388709328 2.1292788461538463 5.1579629986765143 0.32797924297924302 0.97655227596016936 -0.0081456296129802635 -0.0086704961704957544 0.51502386971380421 3.5000000000000004 0.020560434346360266 0.5121598540348542 0.52508850931677042 0.499591069277184 0.051380376380376382 0.51459538601450749 4.139876215738286 0.58606060606060617
decision_type=2 2 2 2 2 2 2 2 2 2 2 2 2 2 2 2 2 2 2 2 2 2
left_child=1 -1 3 15 -5 6 7 8 -2 10 -4 -9 18 14 -14 -3 -8 -11 20 -15 -7 -18
right_child=5 2 9 4 -6 12 16 11 -10 17 -12 -13 13 19 -16 -17 21 -19 -20 -21 -22 -23
leaf_value=0.048976713364273047 -0.043271412862997731 0.049763675713446469 0.0036003127220065544 -0.0083936922650478182 -0.033349020375438132 0.06519153406756216 0 0.040891171874006198 0.013945371124481869 -0.0038534021378482911 -0.021569276532853371 -0.019456618822977778 -0.0010531456251239401 -0.052081999499435254 0.061488980397818777 -0.018039741179010797 0.062910067494093697 0.046191516113143101 0.012106971027225952 0.0012454448833367573 0.02906528392814103 0.024845714130151509
leaf_weight=3.2908057123422614 4.3152416497468939 3.0930755436420432 34.467735141515732 25.545436814427376 50.205651953816414 6.4800076484680194 2.2443117350339872 2.6492033302783993 48.127611473202705 2.3335562795400611 34.60975968837738 26.950464397668839 3.8235813081264478 2.4278032034635544 4.0662664026021957 2.3527726531028748 3.9317274987697601 4.5867609679698944 2.8684353679418555 2.266709953546524 2.3396390378475189 2.1174819469451904
leaf_count=16 18 14 150 109 210 31 10 12 214 10 146 115 17 10 20 10 19 21 13 10 11 10
internal_value=-0.00353927 -0.0126368 -0.0139824 -0.0219227 -0.0250083 0.00916492 0.00420345 0.000774334 0.00908779 -0.00542852 -0.00896548 -0.0138012 0.0273731 0.00940859 0.0310453 0.0199522 0.0372356 0.0289319 0.046132 -0.02601 0.0564899 0.0508571
internal_weight=275.094 160.486 157.195 81.1969 75.7511 114.608 90.336 82.0425 52.4429 75.9978 69.0775 29.5997 24.2724 12.5844 7.88985 5.44585 8.29352 6.92032 11.6881 4.69451 8.81965 6.04921
internal_count=1196 686 670 343 319 510 398 359 232 327 296 127 112 57 37 24 39 31 55 20 42 29
is_linear=0
shrinkage=0.04


Tree=11
num_leaves=18
num_cat=0
split_feature=24 17 31 33 26 23 29 26 36 28 23 32 9 19 36 23 26
split_gain=17.8707 12.9108 10.0954 7.40478 7.55719 8.17018 6.96385 6.66958 5.74632 10.5454 4.48197 4.28228 3.94878 3.85231 3.12561 4.64525 4.34125
threshold=0.13090816326530555 1.3106356388709328 0.71596459096459097 0.286001221001221 9.6381286726998443 2.4413257575757581 0.5852443269569173 -2.6360026938795822 0.12772036918384178 0.52416201353867864 0.44580086580086636 0.68908730158730169 -0.59854166666666708 0.23085535588442466 0.068227232443690125 -0.43318839288366101 81.976522413793106
decision_type=2 2 2 2 2 2 2 2 2 2 2 2 2 2 2 2 2
left_child=2 6 3 4 5 -1 8 -4 10 -10 -2 14 -6 -9 16 -16 -3
right_child=1 11 7 -5 12 -7 -8 13 9 -11 -12 -13 -14 -15 15 -17 -18
leaf_value=-0.026375532918726501 0.010810909610389685 0.058230360685246882 -0.029080135587309354 0.043885926969820875 -0.014675412354611185 0.011695799546932489 -0.064876745713168177 0.063388977558206577 -0.047736182712000232 0.015017865810193372 -0.006952076776311775 -0.013848347232025399 0.045518161165657947 0.0054098435630698617 -0.029652709074649879 0.03615461722926358 -0.00082256451840879736
leaf_weight=92.967489302158356 74.421972095966339 12.213591665029531 2.8575735539197922 2.8549394160509101 2.8278233706951141 9.7767716199159604 2.4477569013833991 4.7424861192703229 9.4141171872615832 7.5956382453441611 32.3369330316782 2.735002562403678 4.0125183016061774 3.2419723570346832 2.2952441722154617 5.661269322037696 2.2144089192152014
leaf_count=392 327 59 12 13 12 43 10 22 39 34 141 12 19 14 10 27 10
internal_value=-0.00339569 0.00579382 -0.0147044 -0.0182805 -0.0199751 -0.0227061 0.000540393 0.0218454 0.00191776 -0.0195558 0.00539165 0.031925 0.0202047 0.0407003 0.0377323 0.016542 0.0489483
internal_weight=274.618 151.336 123.282 112.44 109.585 102.744 126.216 10.842 123.769 17.0098 106.759 25.1195 6.84034 7.98446 22.3845 7.95651 14.428
internal_count=1196 669 527 479 466 435 551 48 541 73 468 118 31 36 106 37 69
is_linear=0
shrinkage=0.04


Tree=12
num_leaves=21
num_cat=0
split_feature=12 11 18 4 10 35 1 14 29 1 37 33 27 26 33 26 31 35 11 15
split_gain=17.4717 7.44769 6.3859 6.0184 5.60663 6.74548 10.3459 6.21551 5.36261 8.80256 5.88023 5.21392 4.92982 4.3083 4.09691 3.90248 3.52866 4.53509 2.83561 2.30241
threshold=0.71187396112819845 -3.8308613520682484 4.6256349219050614 24.500000000000004 8.3804375688693451 0.44867591651840882 -0.66811668091168153 -2.6978256468254069 0.50032119549759246 1.8908107880844633 0.49213832777070743 -0.17336996336996333 2.2922896986054879 8.6649650394143993 0.14948858331211276 0.46700438466297106 0.64734432234432238 0.51652607800876738 -1.0000000180025095e-35 1.356638198757764
decision_type=2 2 2 2 2 2 2 2 2 2 2 2 2 2 2 2 2 2 2 2
left_child=1 -1 8 4 5 7 -7 -2 10 -10 -3 18 -13 15 -15 -6 17 19 -4 -5
right_child=3 2 11 16 13 6 -8 -9 9 -11 -12 12 -14 14 -16 -17 -18 -19 -20 -21
leaf_value=0.04734542624546266 -0.065585876495895284 -0.051091039496036189 -0.0593600762952693 0.06110481143202981 0.0062195787347662981 -0.024916989174995696 0.022927883955996334 -0.0011359391225991089 -0.0030199947491415051 -0.037949906129214332 -0.019023106592201317 0.023171114478699639 -0.027496790432798967 0.032762914534579274 -0.029765833236096811 -0.048420561006549949 0.060218435420664726 -0.017792854997840685 -0.0049333601942213633 0.0098219248420861362
leaf_weight=3.2313663959503165 2.7073784172534969 11.930772721767424 2.4428496211767197 3.2656667679548246 2.7563906908035296 8.2298666536807996 52.223545089364052 17.250142723321915 62.145306184887886 14.177545487880705 43.257379963994026 17.521145761013035 3.5675124228000632 4.1989182829856864 2.6074326187372208 7.0322205275297165 4.9808949530124655 3.4556289613246918 4.3698455244302776 2.8429045528173447
leaf_count=16 11 49 10 16 12 35 237 76 267 59 183 79 15 19 11 29 25 15 19 13
internal_value=-0.00326242 -0.0116323 -0.0128818 0.00890469 0.00524124 0.00964192 0.016318 -0.0103619 -0.0165736 -0.009602 -0.0261079 0.00437342 0.0143217 -0.0157727 0.00814556 -0.0327225 0.0328617 0.0177251 -0.0256044 0.0384248
internal_weight=274.195 162.644 159.412 111.551 97.0059 80.4109 60.4534 19.9575 131.511 76.3229 55.1882 27.9014 21.0887 16.595 6.80635 9.78861 14.5451 9.5642 6.8127 6.10857
internal_count=1196 697 681 499 430 359 272 87 558 326 232 123 94 71 30 41 69 44 29 29
is_linear=0
shrinkage=0.04


Tree=13
num_leaves=23
num_cat=0
split_feature=0 33 17 26 0 28 29 3 35 6 34 31 2 34 15 12 36 31 28 33 33 39
split_gain=16.6024 9.30572 8.06971 7.61796 6.36609 8.53965 6.57778 5.07104 9.16344 7.8368 6.22239 7.57582 6.05739 4.66082 6.54246 3.85018 4.65489 3.35877 3.3341 2.6182 3.70451 1.84074
threshold=0.046968524251805983 -0.1612280701754385 1.3106356388709328 11.150547357947653 0.14690873819163297 0.52326397040275652 0.48059485989756823 -0.3116775599128539 0.45710090383346208 1.5000000000000002 0.60223484848484854 0.73309523809523813 -0.11987684729064034 0.47281558887922986 -0.14544642857142739 0.46504559270516671 -0.007553388126410431 0.3195238095238096 0.50921206901832794 0.022939560439560445 0.281649877899878 0.52270724410498526
decision_type=2 2 2 2 2 2 2 2 2 2 2 2 2 2 2 2 2 2 2 2 2 2
left_child=3 13 4 7 6 -6 -3 8 9 -1 11 -9 -12 -2 -15 21 -17 -10 -18 -4 -21 -5
right_child=1 2 19 15 5 -7 -8 10 17 -11 12 -13 -14 14 -16 16 18 -19 -20 20 -22 -23
leaf_value=-0.026301644726077961 -0.062993812172835131 -0.01550439121677552 0.062078982823657543 0.01599570288508317 -0.014019478192143843 0.02992375462157329 0.02285867569941959 -0.008621408845758044 -0.05954711211001211 0.045082550552938389 0.0066204502040958001 0.042230524614095592 -0.0636599947739524 0.042544770933581021 -0.040721706213865068 -0.039616558793636611 -0.0078093146907684263 -0.027882546679582391 0.059727091783395303 0.012881320317197072 0.053136107368727203 0.063395906464196142
leaf_weight=4.719571575522421 3.8684701919555646 8.5505956262350065 4.09605644643307 3.0218516141176206 35.338868632912636 8.7094258368015272 38.954008609056473 73.449608758091927 6.8183088302612296 4.8715348839759827 2.7450172752141953 4.8888243734836569 5.8989144563674909 2.4401746392250061 3.5808034688234329 3.0755692273378372 2.3224289864301682 33.508699640631676 2.0542247891426086 12.472347483038904 5.3917409628629676 2.8733363002538681
leaf_count=20 16 37 20 14 153 40 174 315 28 22 12 22 24 11 15 13 10 141 10 58 27 14
internal_value=-0.00314147 0.00770686 0.0109813 -0.0120773 0.00568861 -0.00519212 0.0158514 -0.0149063 -0.0251048 0.00963428 -0.00898547 -0.00534713 -0.0410634 -0.0292115 -0.00617833 0.0165368 -0.00212614 -0.0334692 0.0236221 0.0327398 0.0254818 0.040438
internal_weight=273.65 123.402 113.513 150.248 91.5529 44.0483 47.5046 136.9 49.9181 9.59111 86.9824 78.3384 8.64393 9.88945 6.02098 13.3474 7.45222 40.327 4.37665 21.9601 17.8641 5.89519
internal_count=1196 551 509 645 404 193 211 584 211 42 373 337 36 42 26 61 33 169 20 105 85 28
is_linear=0
shrinkage=0.04


Tree=14
num_leaves=22
num_cat=0
split_feature=12 11 28 36 1 27 18 34 42 37 12 4 27 28 32 34 2 23 18 30 40
split_gain=15.5266 6.88356 6.08053 6.74611 6.11833 6.74225 5.87493 5.66599 5.05485 5.85397 5.46437 4.92562 4.22841 4.15917 4.90031 4.02981 3.98811 3.77754 4.09323 2.44205 1.65455
threshold=0.69626665836343238 -3.8308613520682484 0.52620553877066645 0.12413107283429338 3.8645329386892171 2.7032581553199706 4.6256349219050614 0.5529485791985792 0.60769230769230786 0.39780696267581084 0.57422619047619039 1.5000000000000002 0.4288791989664083 0.55931389748964844 0.49980158730158736 0.44373477764925134 0.17222222222222222 -0.88448924731182788 -0.99927836888600285 -0.01472253337156265 0.087094663966674715
decision_type=2 2 2 2 2 2 2 2 2 2 2 2 2 2 2 2 2 2 2 2 2
left_child=1 -1 3 4 5 -2 8 -6 9 -3 -10 15 16 17 -15 -8 -5 18 -4 -13 -19
right_child=2 6 13 12 7 -7 11 -9 10 -11 -12 19 -14 14 -16 -17 -18 20 -20 -21 -22
leaf_value=0.046072411944535839 0.0056110207181006549 0.04197434966288846 -0.029231883022097463 -0.055807340003618623 0.035142367066150884 -0.04037355594372774 0.0325910535754921 -0.024709235150413213 0.0057044691676037427 -0.021675263087992568 -0.044719620811081433 0.063165969602193645 0.019776947653311169 -0.042102789514950584 0.034151667047199859 -0.016684502421206043 0.00089100411183132137 0.061721450561571363 0.035431127245634929 0.014966545231450705 0.02186386534467219
leaf_weight=3.1788332611322394 54.337416395545006 2.2368424683809272 2.3135306239128113 6.1022676378488523 17.587882697582248 5.5232783854007712 3.0881396085023942 2.7993255555629721 25.100020155310634 97.429422184824944 3.8773826509714118 2.2738774567842484 2.443366900086402 2.6033769845962516 2.5700707137584686 14.98029015958309 2.7130088955163956 7.5785524845123273 4.2071242928505006 7.4380652159452421 2.7724488228559494
leaf_count=16 240 10 10 25 83 23 14 12 109 412 16 11 11 11 12 64 12 38 20 34 13
internal_value=-0.00301796 -0.0110698 0.00826387 0.00365745 0.00777085 0.00124111 -0.0122853 0.0266485 -0.0158921 -0.020166 -0.00103566 0.00427056 -0.0251197 0.0271011 -0.00353324 -0.00790945 -0.0380948 0.0366958 0.0117895 0.027188 0.0517399
internal_weight=273.155 159.603 113.552 91.5065 80.2479 59.8607 156.424 20.3872 128.644 99.6663 28.9774 27.7804 11.2586 22.0451 5.17345 18.0684 8.81528 16.8717 6.52065 9.71194 10.351
internal_count=1196 686 510 406 358 263 670 95 547 422 125 123 48 104 23 78 37 81 30 45 51
is_linear=0
shrinkage=0.04


Tree=15
num_leaves=19
num_cat=0
split_feature=0 33 18 14 37 27 35 31 15 19 24 34 23 36 21 40 17 31
split_gain=14.6842 8.4792 8.26423 6.8379 9.31344 6.285 5.392 5.24243 5.00632 6.03287 7.01499 4.35704 6.64455 4.07891 3.60506 3.45859 1.69322 1.71074
threshold=0.046968524251805983 -0.1612280701754385 6.2385489456911083 -2.1859112351190428 0.55241427283300359 2.867094017094018 0.45765914576974492 0.46333333333333337 -3.1846148459383747 -3.4923483708033252 2.0756290810638647 0.47281558887922986 -0.18574867150448579 0.14512271251569592 0.29573018446565064 0.029829528344674786 0.1048431226970248 0.59309523809523823
decision_type=2 2 2 2 2 2 2 2 2 2 2 2 2 2 2 2 2 2
left_child=5 11 3 4 -3 8 -7 -5 15 -10 -11 -2 -13 14 -4 -1 -8 -18
right_child=1 2 13 7 -6 6 16 -9 9 10 -12 12 -14 -15 -16 -17 17 -19
leaf_value=0.067579327139478049 -0.060619770510818551 -0.019217387109626078 0.057816610023662528 -0.025258239109715534 0.04052967427816484 0.010591324200571826 -0.068882106580883354 0.017501728142482388 -0.061931978627992698 -0.010898488916704099 0.032078232530108879 0.028214204255004177 -0.055733633681725459 -0.009161105728137867 0.024093716875581407 0 -0.0090381533407718935 -0.055749583435909973
leaf_weight=2.1279522329568854 3.8609873056411725 27.888394713401794 7.515142694115645 4.9426224380731574 4.7784097492694846 2.7498893290758124 4.8976583331823331 45.375206559896469 3.4400779455900183 122.0618909150362 6.257586181163787 3.5667470842599869 2.4452010840177536 3.8119410425424567 18.615011721849442 2.7015697956085205 2.8088091015815735 2.6825219988822937
leaf_count=10 16 120 37 21 22 12 20 204 14 525 29 16 10 17 88 12 12 11
internal_value=-0.00289654 0.00733304 0.0104731 0.00390425 -0.0102587 -0.0113123 -0.0377283 0.0131804 -0.00871632 -0.010213 -0.0087482 -0.0279269 -0.00562815 0.028472 0.0341285 0.0306842 -0.0508785 -0.0331611
internal_weight=272.528 122.8 112.927 82.9846 32.6668 149.728 13.1389 50.3178 136.589 131.76 128.319 9.87294 6.01195 29.9421 26.1302 4.82952 10.389 5.49133
internal_count=1196 551 509 367 142 645 55 225 590 568 554 42 26 142 125 22 43 23
is_linear=0
shrinkage=0.04


Tree=16
num_leaves=20
num_cat=0
split_feature=0 33 18 14 33 27 35 31 15 19 25 2 3 41 41 35 11 35 27
split_gain=13.5603 7.85374 7.70285 6.30392 6.42467 5.86227 5.04203 4.84504 4.64175 5.64424 4.75151 4.29867 4.37003 4.19466 4.10163 3.99739 2.18374 1.92568 0.460632
threshold=0.046968524251805983 -0.1612280701754385 6.2385489456911083 -2.1859112351190428 0.020988455988456004 2.867094017094018 0.45765914576974492 0.46333333333333337 -3.1846148459383747 -3.842434715821812 0.8433561175666423 0.044135113178639392 0.75427350427350448 0.47228622631848444 0.52133502197185266 0.48953215901745323 3.3036701936872315 0.44867591651840882 4.7915796038044123
decision_type=2 2 2 2 2 2 2 2 2 2 2 2 2 2 2 2 2 2 2
left_child=5 14 3 4 -3 8 -7 -5 13 -10 -11 17 -13 -1 15 -2 18 -4 -8
right_child=1 2 11 7 -6 6 16 -9 9 10 -12 12 -14 -15 -16 -17 -18 -19 -20
leaf_value=-0.0078179645166615106 -0.04735504067352686 0.017643695685358639 0.017748501371879066 -0.024255283111540817 -0.021196881402646636 0.01017720379735461 -0.067226641588453054 0.016836031012546836 -0.068784488970309948 -0.011397180198708442 0.012410221717190284 -0.0033219342335559505 0.03549181368607169 0.064612925284666001 -0.061760943711900981 0.016508088197972403 -0.012515181589671567 0.056965198040747782 -0.037265157520937689
leaf_weight=2.3058034777641288 2.3956577330827695 9.4329141527414304 3.2176644802093533 4.9451960772275916 23.23493854701519 2.7513517737388602 5.5820075422525388 45.28830848634243 2.4677101522684088 114.24635572731495 14.956403240561484 9.5611517280340212 8.5957149714231473 2.5053386092185974 3.4245476573705673 4.0266130864620209 2.3536923825740814 8.3646901845931989 2.383979931473732
leaf_count=10 10 42 15 21 100 12 23 204 10 491 67 43 42 12 14 18 10 42 10
internal_value=-0.00278707 0.00705802 0.0100848 0.00375119 -0.00983989 -0.0108765 -0.0364617 0.0126712 -0.008372 -0.00981245 -0.00860285 0.0275345 0.0149277 0.0296326 -0.026917 -0.00706188 -0.0492584 0.0466581 -0.0593292
internal_weight=272.04 122.487 112.641 82.9014 32.6679 149.553 13.071 50.2335 136.482 131.67 129.203 29.7392 18.1569 4.81114 9.84682 6.42227 10.3197 11.5824 7.96599
internal_count=1196 551 509 367 142 645 55 225 590 568 558 142 85 22 42 28 43 57 33
is_linear=0
shrinkage=0.04


Tree=17
num_leaves=21
num_cat=0
split_feature=12 26 3 39 26 39 31 23 32 32 15 4 19 22 7 10 31 34 34 38
split_gain=12.7727 6.69155 6.7239 10.5231 9.08223 6.04286 6.52795 5.36511 5.86922 5.7036 5.64799 5.20172 5.36937 4.87763 4.68017 4.61654 4.60799 3.96976 3.59141 0.648926
threshold=0.69626665836343238 2.5283781948315682 -0.3116775599128539 0.54835466913090403 12.480502375319682 0.47424450365795173 0.37541847041847048 2.4413257575757581 0.27509659458188879 0.62424812030075205 -1.3807135427501562 24.500000000000004 2.480207929325577 -1.5810467460317523 -4.4999999999999991 4.9485897970309383 0.64734432234432238 0.47768263254029025 0.55226098901098908 0.53213128369914509
decision_type=2 2 2 2 2 2 2 2 2 2 2 2 2 2 2 2 2 2 2 2
left_child=1 7 3 4 -3 -4 -7 8 -1 -9 -10 12 14 -11 -2 -16 17 -13 -19 -14
right_child=11 2 5 -5 -6 6 -8 9 10 13 -12 16 19 -15 15 -17 -18 18 -20 -21
leaf_value=0.034582384096965103 0.04564280594817903 -0.032598872707094641 0.062330512035555986 0.053198566398381344 0.046567539281754444 -0.042286076074889697 0.017557047347214298 0.046588989029962544 -0.0058719572795943673 0.030079946717045163 -0.027135749534437096 0.049503752010424756 0.05848402631783832 -0.036491582751279839 0.0068366549420941728 -0.012174907549615239 0.058991169451035372 -0.029730446062986519 0.026857208796898707 0.022680568896787223
leaf_weight=3.0656598657369605 3.652114897966384 18.998280614614494 3.8239188492298153 3.2299201488494864 2.5119256377220145 3.3450190126895931 18.247385993599892 4.2209709882736188 29.842537611722946 2.691025123000145 64.304688423871994 3.099559545516966 2.7727871388196936 4.5449516028165817 57.01228928565979 31.722771286964417 5.3507009744644156 3.8696549236774445 3.1431823670864105 2.0653740614652634
leaf_count=14 17 80 18 15 12 14 82 19 129 12 272 15 14 19 256 138 28 17 15 10
internal_value=-0.00268252 -0.00999852 0.00201417 -0.0127135 -0.0229961 0.0165004 0.00794977 -0.0155765 -0.0186411 0.0100167 -0.0204514 0.00759311 0.00410375 -0.0111161 0.00188431 0 0.0291084 0.0124822 -0.00378425 0.0447786
internal_weight=271.515 158.826 50.1565 24.7401 21.5102 25.4163 21.5924 108.67 97.2129 11.4569 94.1472 112.688 97.2253 7.23598 92.3872 88.7351 15.4631 10.1124 7.01284 4.83816
internal_count=1196 686 221 107 92 114 96 465 415 50 401 510 435 31 411 394 75 47 32 24
is_linear=0
shrinkage=0.04


Tree=18
num_leaves=20
num_cat=0
split_feature=24 17 26 23 29 9 35 18 35 13 28 32 32 36 26 23 28 40 40
split_gain=12.2166 8.73484 6.80803 7.06893 6.36383 6.35792 6.09228 7.49487 6.06869 4.81515 3.9857 3.75738 3.46782 2.9485 4.32308 4.10741 2.91435 2.61759 1.70869
threshold=0.13090816326530555 1.3106356388709328 9.6381286726998443 2.4413257575757581 0.5852443269569173 -0.86420987549036432 0.39572064631275161 3.2145699856258294 0.47700360734435349 2.9535879629629629 0.50980366070191419 0.68908730158730169 0.62424812030075205 0.068227232443690125 81.976522413793106 -0.43318839288366101 0.51098930464350512 -0.026318926044676196 -0.028162462969852389
decision_type=2 2 2 2 2 2 2 2 2 2 2 2 2 2 2 2 2 2 2
left_child=2 4 3 5 6 17 7 -2 -7 -8 12 13 -5 14 -3 -15 18 -1 -4
right_child=1 11 16 10 -6 8 9 -9 -10 -11 -12 -13 -14 15 -16 -17 -18 -19 -20
leaf_value=-0.014446039885505203 -0.052388116404347707 0.053675875118860308 0.014158788262135969 0.016543922987567392 -0.061774368603594282 0.0023484114898553884 0.003781440791633236 0.013277122160028184 -0.020563670215836903 0.063632590324121704 0.045564558698863403 -0.016022478075030742 -0.037013240443900114 -0.03156417092047599 -0.0064062025180847484 0.031206429079908494 -0.005585301214295655 -0.052922311498356078 0.066655952889417031
leaf_weight=4.4149545282125464 6.7117889821529371 11.523966446518903 2.0976823270320892 5.3992231041192991 2.4426763802766791 26.090218156576157 109.31320497393608 4.5080027729272842 60.905094653367996 2.106155812740325 4.1134307831525794 2.6779585629701605 2.8709940761327744 2.2551247924566269 2.131700560450553 5.3775893151760092 2.8855390101671219 10.568353712558745 2.4770467281341544
leaf_count=19 28 59 10 24 10 114 483 20 260 10 19 12 12 10 10 27 13 44 12
internal_value=-0.00257037 0.00508953 -0.0119714 -0.0144135 0.000809822 -0.017896 0.00213825 -0.0257669 -0.0136515 0.00500472 0.0138578 0.0271632 -0.00179056 0.0328322 0.0440277 0.0119749 0.024631 -0.0420211 0.0442575
internal_weight=270.871 149.048 121.823 114.362 125.082 101.979 122.639 11.2198 86.9953 111.419 12.3836 23.9663 8.27022 21.2884 13.6557 7.63271 7.46027 14.9833 4.57473
internal_count=1196 669 527 492 551 437 541 48 374 493 55 118 36 106 69 37 35 63 22
is_linear=0
shrinkage=0.04


Tree=19
num_leaves=21
num_cat=0
split_feature=0 33 17 0 6 29 26 31 35 32 24 23 24 13 33 31 39 33 33 8
split_gain=11.4111 7.04634 6.11615 6.05299 7.29074 5.97814 5.64948 4.31965 6.9387 6.12797 4.4243 4.69596 4.25782 4.13311 3.42721 4.31878 2.76257 2.5782 3.39146 1.58634
threshold=0.046968524251805983 -0.1612280701754385 1.3106356388709328 0.14690873819163297 -1.4999999999999998 0.48059485989756823 11.150547357947653 0.73309523809523813 0.48816039318953391 0.63400793650793663 2.0756290810638647 1.5831547619047619 -0.23939872500724399 0.057634408602150973 0.0030952380952380958 0.68991496119979101 0.53537667798742983 0.022939560439560445 0.281649877899878 -0.0026682477844528481
decision_type=2 2 2 2 2 2 2 2 2 2 2 2 2 2 2 2 2 2 2 2
left_child=6 12 3 5 -5 -3 7 10 19 -10 11 -1 -2 -8 -15 -16 -14 -4 -19 -9
right_child=1 2 17 4 -6 -7 13 8 9 -11 -12 -13 16 14 15 -17 -18 18 -20 -21
leaf_value=-0.019235977883513354 0.018093597381550093 -0.015143920380215612 0.058527447556774609 0.0084849744163751645 -0.024330333606099989 0.021582543443119506 0.0488170650268763 0.022033988450907999 -0.059134357476895376 0.022594884622906011 0.039710095003325091 0.00037721525843370795 -0.064084700025875754 0.032458577956012202 -0.043647215590735672 0.025727432130298884 -0.01292268704618168 0.0095356743758984765 0.049026431615384038 0.074521343552753819
leaf_weight=99.607754036784172 2.4716364592313766 8.4754939377307874 3.9091250896453884 24.648229941725731 19.039891317486763 38.584930971264839 3.9157767891883841 2.2303914427757263 2.6936752051115036 2.9242677390575409 2.2411737591028205 23.790992245078087 3.8724475204944593 3.2638679146766645 3.7728042602539062 2.1232239603996277 3.4508866369724274 12.109863653779032 5.0430745333433142 2.1711019128561002
leaf_count=426 11 37 20 111 82 174 20 10 11 13 10 104 16 15 16 10 15 58 27 10
internal_value=-0.00247091 0.00659502 0.00947703 0.00490223 -0.00574795 0.0148653 -0.00990954 -0.0123474 0.0126217 -0.0162417 -0.0143789 -0.015425 -0.0256625 0.0149811 0 -0.0179851 -0.0410139 0.0288828 0.0215949 0.0498931
internal_weight=270.341 121.606 111.811 90.7485 43.6881 47.0604 148.735 135.659 10.0194 5.61794 125.64 123.399 9.79497 13.0757 9.1599 5.89603 7.32333 21.0621 17.1529 4.40149
internal_count=1196 551 509 404 193 211 645 584 44 24 540 530 42 61 41 26 31 105 85 20
is_linear=0
shrinkage=0.04


Tree=20
num_leaves=24
num_cat=0
split_feature=3 24 30 23 10 29 1 10 41 17 40 31 15 24 37 41 24 13 5 41 19 20 35
split_gain=11.1227 9.60831 7.50544 7.16993 6.94857 5.75346 5.53037 5.40744 5.01449 5.32848 4.63174 4.54247 7.37181 6.00215 5.39207 4.43536 3.99146 5.44507 3.89194 3.42403 2.31393 2.15304 0.00498702
threshold=-0.3116775599128539 0.22674060329306703 -0.092299156610012575 1.5831547619047619 -6.0168040297937244 0.48304808398868371 6.3316209289487029 3.1317650530274901 0.47419143502906308 0.61009259259259363 -0.070107782400689697 0.46021645021645025 -0.036666344044393055 -0.19002898550724587 0.49891487969394949 0.53753638469094434 -0.31457320929945592 0.4197957516339868 -1.4999999999999998 0.53295058235178006 0.19544143603990796 -1.7351802600472805 0.45578405017921159
decision_type=2 2 2 2 2 2 2 2 2 2 2 2 2 2 2 2 2 2 2 2 2 2 2
left_child=5 2 -2 15 -5 7 8 18 9 -3 -10 16 13 -13 -14 -4 21 -18 -1 20 -9 -7 -8
right_child=1 6 3 4 -6 11 22 19 10 -11 -12 12 14 -15 -16 -17 17 -19 -20 -21 -22 -23 -24
leaf_value=0.010451969859384614 0.050981592747678182 -0.012246342602689413 -0.019629639355764228 -0.014044769679899451 0.035781460473676328 -0.026766634327817444 0.033830193693843678 0.07204740148082435 0.049265065775093833 0.013805469789706742 0.012090961132288011 0.054171808582313123 -0.0065195727309288101 -0.0057990521446920741 -0.05437455098584703 0.011285066101140662 -0.034301240098343608 0.035545129937241945 -0.049839242156134021 -0.0095395182553876887 0.015798057213190064 -0.062921062012746554 0.05629117898708124
leaf_weight=3.1900483071804047 3.2575614601373664 29.188721179962158 59.453772142529488 8.145293280482294 9.5377724617719633 4.8558215200901023 1.8886887878179539 2.7595614492893219 6.0324752777814856 21.857930421829224 50.956073954701424 3.2207279205322292 7.3439874947071102 13.211716234683989 8.1963582336902601 8.2447555959224683 6.1340250074863416 2.3649659603834152 3.3324376791715604 2.324935719370842 2.4732114672660828 8.4104868918657321 3.3935109227895737
leaf_count=14 15 127 255 35 44 21 10 13 28 102 231 15 32 58 34 37 26 11 14 10 11 35 18
internal_value=-0.00236866 0.00232213 -0.00751217 -0.00984771 0.0126553 -0.0163792 0.0100498 0.00612547 0.008026 -0.00100769 0.0161755 -0.0223504 -0.0125012 0.00596975 -0.0322015 -0.0157946 -0.0365125 -0.014213 -0.0200352 0.0291919 0.0470066 -0.0502861 0.0497811
internal_weight=269.775 201.957 88.6392 85.3816 17.6831 67.8183 113.317 14.0802 108.035 51.0467 56.9885 53.7381 31.9728 16.4324 15.5403 67.6985 21.7653 8.49899 6.52249 7.55771 5.23277 13.2663 5.2822
internal_count=1196 902 386 371 79 294 516 62 488 229 259 232 139 73 66 292 93 37 28 34 24 56 28
is_linear=0
shrinkage=0.04


Tree=21
num_leaves=18
num_cat=0
split_feature=3 24 30 23 40 29 1 33 10 33 29 34 31 31 5 24 1
split_gain=10.3134 8.87712 6.94877 6.6155 6.4956 5.34281 5.25089 5.06405 5.00751 4.56015 5.03879 4.37 4.37123 5.65414 3.6244 3.46018 2.58524
threshold=-0.3116775599128539 0.22674060329306703 -0.092299156610012575 1.5831547619047619 -0.054401181482434273 0.48304808398868371 6.3316209289487029 0.1305130980130981 3.1317650530274901 -0.30891414141414136 0.48276951659909956 0.40232729624177005 0.46021645021645025 0.49782051282051287 -1.4999999999999998 -0.31457320929945592 -0.93327772605301529
decision_type=2 2 2 2 2 2 2 2 2 2 2 2 2 2 2 2 2
left_child=5 2 -2 7 -5 8 9 -4 14 -3 -11 -7 15 -14 -1 -13 -10
right_child=1 6 3 4 -6 11 -8 -9 16 10 -12 12 13 -15 -16 -17 -18
leaf_value=0.010039438526227754 0.049137424262329497 -0.043044044311343337 -0.021795573152696469 -0.031610340627094169 0.025486601984344215 -0.066960631102847945 0.048750466126155634 0.0027151223473432535 0.053402531110142502 -0.0086940632836032868 0.013360267662735159 -0.046752590129369172 0.041457148214496753 -0.014635778518069562 -0.048187788152618823 -0.012095873226413567 0.0053375843299650399
leaf_weight=3.1923464387655258 3.2485541552305213 2.6353244781494132 49.513989180326462 4.009080275893214 13.628273397684096 3.1695993095636359 5.1887442618608466 18.11373333632946 3.429291769862175 20.282131299376488 84.973981633782387 11.941152334213259 3.0904393941164043 27.100873962044716 3.3126031607389432 8.2111648023128492 4.1086923032999039
leaf_count=14 15 11 212 17 62 13 28 80 16 90 387 51 14 118 14 36 18
internal_value=-0.00227519 0.00224162 -0.00721532 -0.00946424 0.0121776 -0.0157963 0.00967923 -0.0151771 0.00590718 0.00771976 0.00906836 -0.0215667 -0.0185023 -0.00864404 -0.0192874 -0.0329585 0.0281406
internal_weight=269.15 201.594 88.5136 85.2651 17.6374 67.5562 113.08 67.6277 14.0429 107.891 105.256 53.5132 50.3436 30.1913 6.50495 20.1523 7.53798
internal_count=1196 902 386 371 79 294 516 292 62 488 477 232 219 132 28 87 34
is_linear=0
shrinkage=0.04


Tree=22
num_leaves=21
num_cat=0
split_feature=3 20 0 26 14 0 41 7 14 29 6 0 19 13 43 26 25 41 30 36
split_gain=9.54224 8.39636 8.49319 6.53759 6.27815 6.67287 5.86706 8.85468 8.40275 4.13907 4.96049 4.83573 4.38336 4.21538 5.65864 2.39737 2.0296 2.8405 1.51498 1.03147
threshold=-0.3116775599128539 2.6187599364069953 -0.047077922077922101 12.480502375319682 -2.6978256468254069 -0.059586466165413514 0.53177632376105677 4.5000000000000009 -6.4095532936585959 0.48304808398868371 1.5000000000000002 -0.13001413731636849 0.19544143603990796 1.9714285714285704 5.5000000000000009 -0.43352796230941232 2.0805555555555557 0.53166300519580167 0.0089156600344599563 0.077515740036113709
decision_type=2 2 2 2 2 2 2 2 2 2 2 2 2 2 2 2 2 2 2 2
left_child=3 2 4 9 5 -2 7 -4 -8 10 11 -1 -12 14 -11 -6 19 -18 -5 -3
right_child=1 16 6 18 15 -7 8 -9 -10 13 12 -13 -14 -15 -16 -17 17 -19 -20 -21
leaf_value=0.028483355281882769 0.010386344359681837 0.062167472463806224 -0.0068636687563223431 0.05595822690672967 -0.021036121928578733 -0.048232643699141521 -0.018282922611002981 0.022196606752493225 0.023641769399247885 -0.036390915933294236 0.070709432584052073 -0.039570178196541204 -0.00032072384385030189 0.028910033310029618 -0.0068429519893806138 -0.05333997857438505 -0.016036804841636096 0.041906731300505352 0.0081850246214549439 0.021874763826598892
leaf_weight=2.2419497519731522 14.895816877484323 4.3193337023258191 84.965418711304665 1.9410012811422337 9.1636491268873232 3.8131843954324713 9.2795676887035352 20.781299963593483 39.728361561894417 31.372022226452827 2.3281275480985641 5.4325056523084623 2.9918137639760971 2.1557573378086081 16.093437969684601 7.152971848845481 2.330672487616539 2.8088093400001526 2.8018332868814468 1.9843390733003614
leaf_count=10 65 22 374 10 39 16 41 96 183 134 11 23 13 10 70 30 11 15 13 10
internal_value=-0.0021891 0.0021571 0.000121256 -0.015216 -0.017615 -0.00154136 0.00417011 -0.00109939 0.0156009 -0.018694 0.00110614 -0.0190644 0.0307568 -0.0239514 -0.0264921 -0.03568 0.0352808 0.0150623 0.0293139 0.050648
internal_weight=268.582 201.223 189.78 67.3584 35.0256 18.709 154.755 105.747 49.0079 62.6156 12.9944 7.67446 5.31994 49.6212 47.4655 16.3166 11.4432 5.13948 4.74283 6.30367
internal_count=1196 902 844 294 150 81 694 470 224 271 57 33 24 214 204 69 58 26 23 32
is_linear=0
shrinkage=0.04


Tree=23
num_leaves=21
num_cat=0
split_feature=24 31 17 29 33 35 26 35 43 3 18 11 3 34 30 28 31 3 39 30
split_gain=8.90377 7.22242 6.66057 5.77275 5.7343 5.68405 5.25071 5.13756 7.47747 4.82614 4.62322 5.38375 4.23129 3.7368 4.40961 3.16914 2.53993 2.26067 3.44499 0.796493
threshold=0.13090816326530555 0.71596459096459097 1.3106356388709328 0.5852443269569173 0.286001221001221 0.45832375576493228 9.6381286726998443 0.39572064631275161 6.5000000000000009 0.24027777777777784 -3.2166252428924902 -0.33936324691220648 0.52456709956709979 0.51502386971380421 0.027554678962921828 0.51098930464350512 0.60993464052287594 0.80839982269503552 0.51308460884353757 0.049811043489900349
decision_type=2 2 2 2 2 2 2 2 2 2 2 2 2 2 2 2 2 2 2 2
left_child=1 4 3 7 6 -3 12 8 -2 -9 -7 -12 -1 17 16 -8 -15 -4 -19 -16
right_child=2 5 13 -5 -6 10 15 9 -10 -11 11 -13 -14 14 19 -17 -18 18 -20 -21
leaf_value=-0.01914606370567359 -0.042980662084674423 0.059233720542941078 0.057211465584548683 -0.059080190844397001 0.042049311855715261 -0.045163763364408242 0.041035707121688574 0.010931248653611999 0.030525813495411072 -0.0064243037228963852 0.067699104572837246 -0.017764843447804657 0.014887418252380538 0.012970774979115319 0.054477437504651269 -0.014806800292887534 -0.032089595171457319 -0.012426189763517653 0.052956500544818291 0.015255802550113242
leaf_weight=94.475035220384598 8.2937851846218091 3.8410530686378461 6.1818584054708499 2.422839328646659 2.7904491126537314 2.3680320084095001 4.0714068412780753 71.028223514556885 2.8622116744518271 39.695667862892151 2.1284694522619247 2.3254824876785278 6.0247410684823981 3.7452571690082532 2.5877528339624405 2.4642524719238281 3.9283194690942764 2.5154767036437988 2.3400077372789383 1.845828056335449
leaf_count=408 35 18 33 10 13 10 20 317 13 176 10 10 27 18 14 11 18 12 13 10
internal_value=-0.00210332 -0.0101755 0.00446832 0.000759344 -0.0132526 0.020975 -0.0147696 0.00202914 -0.0236626 0.00467283 -0.000532874 0.0227884 -0.0170533 0.0241272 0.00825056 0.0194718 -0.00969839 0.0409531 0.0187093 0.0397273
internal_weight=267.936 120.489 147.447 124.303 109.826 10.663 107.035 121.88 11.156 110.724 6.82198 4.45395 100.5 23.1445 12.1072 6.53566 7.67358 11.0373 4.85548 4.43358
internal_count=1196 527 669 551 479 48 466 541 48 493 30 20 435 118 60 31 36 58 25 24
is_linear=0
shrinkage=0.04


Tree=24
num_leaves=25
num_cat=0
split_feature=12 28 36 26 29 15 29 41 23 38 31 41 34 23 23 34 28 32 38 37 29 13 6 28
split_gain=8.40754 5.32245 5.59402 5.30671 5.27683 9.68792 8.97107 8.71041 5.57287 7.93019 6.6533 4.92235 5.02851 4.90763 6.99382 4.67241 3.73331 4.61581 4.20307 3.79019 3.72269 4.27728 3.50178 0.82127
threshold=0.69626665836343238 0.52620553877066645 0.12413107283429338 2.5283781948315682 0.50765314236919845 -1.3807135427501562 0.51070340892146693 0.52264282063210377 -1.0435241502683354 0.5415773834911507 0.48649766899766905 0.53998700783139064 0.38535114342179561 -2.7103175788732332 -0.93722968076772506 0.44373477764925134 0.55931389748964844 0.49980158730158736 0.55977725350219865 0.52254714377750389 0.49947148998557384 1.1248803827751186 -1.4999999999999998 0.54333572932320962
decision_type=2 2 2 2 2 2 2 2 2 2 2 2 2 2 2 2 2 2 2 2 2 2 2 2
left_child=3 2 13 4 8 7 -7 -6 10 -10 -1 12 -5 22 -15 -14 18 -18 23 -20 21 -4 -2 -3
right_child=1 16 20 11 5 6 -8 -9 9 -11 -12 -13 15 14 -16 -17 17 -19 19 -21 -22 -23 -24 -25
leaf_value=-0.0025326539317361207 -0.0019255370085579139 0.057192624103776395 0.015711458654598102 -0.047118005011842018 -0.009810448225819288 0.046081779345545755 -0.022410251319328583 0.051601665810177021 -0.02142650094701672 0.021344828719221304 -0.055621543426957687 -0.04852138825946245 0.045768805963555606 0.030911846522950742 0.0018961328340731962 0.004467120223080847 -0.042669225035840655 0.032107418796205371 0.04366569868979607 -0.020515540190309229 -0.0543079420343721 -0.048907848267664464 -0.055432427906653578 0.027832305129312864
leaf_weight=5.6424170583486584 5.3947553038597107 7.1899948269128853 4.6834104508161527 2.5715627223253241 6.5229165256023398 3.2953924238681784 28.831518709659576 8.0791342556476575 33.762792855501175 8.5486134290695173 12.481268122792242 2.7057913541793814 4.8942291736602774 17.915129914879799 52.068127065896988 39.15503191947937 2.5462320894002906 2.5093348175287247 2.4022818654775611 3.4143285155296326 4.0816175043582916 2.3684690594673157 3.1340789049863798 3.1513514816761017
leaf_count=25 24 39 21 11 28 15 124 37 146 38 52 12 23 84 237 175 11 12 12 15 17 10 13 15
internal_value=-0.00201702 0.00638736 0.00206447 -0.00799657 -0.0129969 -0.00279344 -0.0151394 0.0240159 -0.0208027 -0.0126607 -0.0394176 0.00279034 0.00595148 0.00587626 0.0094145 0.00923995 0.0243722 -0.00487505 0.033743 0.0056055 -0.0242728 -0.0058129 -0.0224657 0.0489809
internal_weight=267.35 110.859 89.6456 156.491 107.164 46.729 32.1269 14.6021 60.4351 42.3114 18.1237 49.3266 46.6208 78.5121 69.9833 44.0493 21.2135 5.05557 16.158 5.81661 11.1335 7.05188 8.52883 10.3413
internal_count=1196 510 406 686 465 204 139 65 261 184 77 221 209 358 321 198 104 23 81 27 48 31 37 54
is_linear=0
shrinkage=0.04


Tree=25
num_leaves=22
num_cat=0
split_feature=0 33 18 27 14 37 35 26 23 16 13 31 34 23 41 25 41 12 11 5 7
split_gain=8.16513 5.94454 5.69491 4.99615 4.81838 8.54015 4.26296 4.19553 4.22023 5.5121 4.43626 4.19017 3.95365 5.62555 3.35809 4.30123 2.91957 4.39615 1.96504 1.29611 0.66469
threshold=0.046968524251805983 -0.1612280701754385 6.2385489456911083 2.867094017094018 -2.1859112351190428 0.55241427283300359 0.45765914576974492 10.32440645604394 1.5992156862745102 0.090628581944371525 -0.52882779866332619 0.46333333333333337 0.47281558887922986 -0.18574867150448579 0.53195771690144178 0.16798642533936683 0.53442586548789572 0.46504559270516671 3.3036701936872315 2.5000000000000004 -5.4999999999999991
decision_type=2 2 2 2 2 2 2 2 2 2 2 2 2 2 2 2 2 2 2 2 2
left_child=3 12 4 7 5 -3 -5 8 9 -1 -10 -6 -2 -14 15 -4 17 -9 20 -16 -8
right_child=1 2 14 6 11 -7 18 16 10 -11 -12 -13 13 -15 19 -17 -18 -19 -20 -21 -22
leaf_value=-0.018324860920838106 -0.055308320734950296 -0.017566198192326098 0.059564016448615184 0.010507125586377642 -0.023570397413326161 0.040168929925285875 -0.030024709456002167 0.027363929553178387 0.039602376236788181 0.0012024223543871573 -0.0036776314694623438 0.014806424687060655 0.028376398737770165 -0.049810959510872402 0.052866956982509546 0.0044303832877313886 0.05641656503377579 -0.018856525187015204 -0.009497848942509414 0.020497537302669788 -0.062890650107375823
leaf_weight=66.972054794430733 3.7967082560062391 27.505721479654312 2.6057264208793702 2.7385177016258231 4.9047033339738837 4.687741592526435 2.2563481926918021 7.0983122885227186 5.3412097841501263 34.718561723828316 11.996627151966093 44.613324388861656 3.5385334342718124 2.3628839403390884 6.7192601859569532 15.374088034033774 2.1163777709007254 5.8952608406543732 2.3237175047397614 3.7518166899681091 5.3776653110980979
leaf_count=290 16 120 13 12 21 22 10 34 24 152 53 204 16 10 36 74 11 26 10 19 23
internal_value=-0.00194151 0.00578281 0.00845854 -0.00827371 0.00302491 -0.00893708 -0.0322312 -0.00595401 -0.00849689 -0.0116241 0.00957676 0.0108848 -0.0239791 -0.00257108 0.0238587 0.0129271 0.0137387 0.00610409 -0.0443701 0.0419509 -0.0542076
internal_weight=266.695 119.861 110.162 146.835 81.7115 32.1935 12.6962 134.138 119.028 101.691 17.3378 49.518 9.69813 5.90142 28.4509 17.9798 15.11 12.9936 9.95773 10.4711 7.63401
internal_count=1196 551 509 645 367 142 55 590 519 442 77 225 42 26 142 87 71 60 43 55 33
is_linear=0
shrinkage=0.04


Tree=26
num_leaves=19
num_cat=0
split_feature=3 24 30 23 26 10 26 32 21 29 31 0 21 26 37 26 29 37
split_gain=8.16826 6.58962 6.38026 5.73588 6.58845 5.82864 5.72404 4.67746 4.71454 4.92181 3.99752 7.81952 5.66491 3.33721 3.27133 3.19088 3.26124 2.74257
threshold=-0.3116775599128539 0.22674060329306703 -0.092299156610012575 1.5831547619047619 6.7465659893381806 -6.0168040297937244 12.480502375319682 0.17333333333333337 1.1102360995978018 0.48086140306432912 0.44849206349206355 -0.093883677298311444 0.83961004273504181 81.976522413793106 0.49500021824506069 8.1768018986448272 0.48140742637266054 0.51757906805943954
decision_type=2 2 2 2 2 2 2 2 2 2 2 2 2 2 2 2 2 2
left_child=6 2 -2 4 -4 -5 10 -3 9 -9 15 14 -13 -10 -12 16 -1 -8
right_child=1 7 3 5 -6 -7 17 8 13 -11 11 12 -14 -15 -16 -17 -18 -19
leaf_value=0.0067120153430877327 0.048197282400039655 -0.060808007365327515 -0.017320149659835363 -0.012484814069423705 0.027999538826018241 0.033390070245469555 0.05609613871513501 -0.013838254699045954 0.039941600970724321 0.010304850492652038 -0.013086502759090691 -0.012979127857698709 -0.066236792093534919 -0.0017928938980113255 0.035824295445897512 0.0068544809243610769 -0.04282648910701177 -0.0031331524352977203
leaf_weight=2.2441852539777818 3.2230548411607733 1.4177605360746373 61.492358967661858 8.0583872348070162 5.4469309300184241 9.4146187603473646 2.4763887226581565 16.110220462083817 12.123419538140295 78.278793424367905 2.9579855650663358 26.234741583466533 3.6267438530921927 3.8403211236000052 6.9864169657230377 2.8973275870084754 16.993220239877701 2.178761824965477
leaf_count=10 15 6 266 35 26 44 13 71 64 357 13 114 15 18 32 13 74 10
internal_value=-0.00186556 0.00216911 -0.00601214 -0.00818389 -0.0135365 0.0120547 -0.0139916 0.00861913 0.00960156 0.00613151 -0.0172559 -0.00949238 -0.0197804 0.0297041 0.020892 -0.0309319 -0.0368358 0.0280508
internal_weight=266.002 199.406 87.6354 84.4123 66.9393 17.473 66.5958 111.771 110.353 94.389 61.9406 39.8059 29.8615 15.9637 9.9444 22.1347 19.2374 4.65515
internal_count=1196 902 386 371 292 79 294 516 510 428 271 174 129 82 45 97 84 23
is_linear=0
shrinkage=0.04


Tree=27
num_leaves=22
num_cat=0
split_feature=0 33 18 7 9 33 6 43 24 38 24 18 39 35 29 36 41 25 33 38 39
split_gain=7.2186 5.43105 5.16871 4.46508 6.85454 5.23241 4.41562 5.29189 4.3342 4.27447 4.1727 4.01685 3.74144 6.08127 5.38952 3.33218 3.18022 4.08927 2.32859 2.20433 1.40022
threshold=0.046968524251805983 -0.1612280701754385 6.2385489456911083 3.5000000000000004 -0.49619152837902852 -0.13666666666666666 -1.4999999999999998 9.5000000000000018 2.0756290810638647 0.4830709259038064 -0.23939872500724399 4.9773858485441105 0.48055366361484275 0.36546092796092799 0.47467096592439434 -0.0056605949080816278 0.53195771690144178 0.16798642533936683 -0.18280303030303027 0.50993354816805569 0.50903195162129322
decision_type=2 2 2 2 2 2 2 2 2 2 2 2 2 2 2 2 2 2 2 2 2
left_child=3 10 6 8 -5 -6 9 -8 12 -3 -2 -7 13 -1 -14 -10 17 -4 19 -12 -18
right_child=1 2 16 4 5 11 7 -9 15 -11 18 -13 14 -15 -16 -17 20 -19 -20 -21 -22
leaf_value=0.042022235099880963 0.020314236557678098 -0.0099035999493485936 0.058108410937008179 0.031020663406235372 0.0022980490768939473 -0.064527896557949646 -0.013186667948392562 0.021172841894946184 -0.0069289862506242339 0.020444296954161747 0.0080396575232368657 -0.0028188754204393368 0.041914865122842447 -0.025312392619082309 -0.0050439727345305118 0.051680650553845194 0.023549895969727647 0.0039280516071477332 -0.068289796470847153 -0.045713426529852406 0.055832394372299331
leaf_weight=2.2094981819391277 2.454733818769455 9.7130880802869779 2.5578684359788957 2.6010873019695309 3.6649555563926706 8.4555014073848671 33.893756091594696 8.9299243837594968 2.4564201235771179 28.911588430404663 2.1996342986822128 2.2857729047536859 3.9741499423980704 25.707319498062134 91.137103572487831 3.5887935310602179 5.0673533678054792 15.298486441373823 2.6519209742546064 2.3239106386899948 5.1918113082647324
leaf_count=10 11 43 13 13 16 35 148 41 11 135 10 10 18 112 402 18 26 74 11 10 29
internal_value=-0.00179543 0.00548719 0.0080513 -0.00776472 -0.0270266 -0.0379245 0.00288003 -0.00589593 -0.00517676 0.0127034 -0.0230568 -0.0519121 -0.00683536 -0.0197094 -0.00299786 0.027489 0.022827 0.0121924 -0.0385192 -0.0191016 0.0406544
internal_weight=265.275 119.194 109.564 146.081 17.0073 14.4062 81.4484 42.8237 129.073 38.6247 9.6302 10.7413 123.028 27.9168 95.1113 6.04521 28.1155 17.8564 7.17547 4.52354 10.2592
internal_count=1196 551 509 645 74 61 367 189 571 178 42 45 542 122 420 29 142 87 31 20 55
is_linear=0
shrinkage=0.04


Tree=28
num_leaves=21
num_cat=0
split_feature=3 20 0 14 0 26 41 14 7 31 0 20 38 39 28 37 37 25 31 36
split_gain=7.45349 6.75509 6.61612 5.32444 5.66119 5.13834 4.92144 8.63382 7.53692 3.69288 7.16007 5.25671 3.07135 3.01374 2.76648 2.63387 2.4806 1.94664 2.60561 0.953406
threshold=-0.3116775599128539 2.6187599364069953 -0.047077922077922101 -2.6978256468254069 -0.059586466165413514 12.480502375319682 0.53036300320248941 -6.4095532936585959 4.5000000000000009 0.44849206349206355 -0.093883677298311444 1.9506236064659983 0.48663705034492605 0.55265989454252484 0.49812948831713216 0.51757906805943954 0.49475709115860023 2.0805555555555557 0.64734432234432238 0.077515740036113709
decision_type=2 2 2 2 2 2 2 2 2 2 2 2 2 2 2 2 2 2 2 2
left_child=5 2 3 4 -2 9 8 -8 -4 13 12 -12 -11 14 -1 -7 -5 19 -19 -3
right_child=1 17 6 16 -6 15 7 -9 -10 10 11 -13 -14 -15 -16 -17 -18 18 -20 -21
leaf_value=-0.016483750968827423 0.010302650069456319 0.059130776989448006 -0.0068116048041804147 -0.015550695037838114 -0.044296286774089921 0.05473562786226871 -0.01906200578197588 0.021804630138527428 0.020336659590348062 -0.016647950153711077 -0.012317826940617688 -0.063958505530293544 0.033100015115226866 0.010848836175710775 -0.048100909776541918 -0.0036483256215140594 -0.048160730436926591 -0.0088193738231600229 0.049495367635321433 0.019728838578160667
leaf_weight=8.3525935113430076 14.85625931620598 4.1269182562828046 79.981673404574394 8.0907734036445635 3.7103451192378989 2.4171760976314536 10.088259696960447 42.357924848794937 20.441965565085411 2.5081619769334775 26.147773534059528 3.5746498256921759 7.4246629178524017 2.4172871261835089 11.150782421231268 2.1729138046503067 7.9856324046850196 3.1247721463441849 1.8135477006435392 1.9224315285682676
leaf_count=37 65 22 355 35 16 13 45 198 96 11 114 15 34 11 49 10 34 15 11 10
internal_value=-0.00172199 0.00213734 0.000321746 -0.0154125 -0.00057295 -0.0133462 0.0039213 0.0138463 -0.00123085 -0.016439 -0.00897227 -0.0188563 0.0200986 -0.0296628 -0.0349176 0.0267558 -0.0321939 0.0324786 0.0123595 0.0477841
internal_weight=264.667 198.501 187.513 34.643 18.5666 66.166 152.87 52.4462 100.424 61.5759 39.6552 29.7224 9.93282 21.9207 19.5034 4.59009 16.0764 10.9877 4.93832 6.04935
internal_count=1196 902 844 150 81 294 694 243 451 271 174 129 45 97 86 23 69 58 26 32
is_linear=0
shrinkage=0.04


Tree=29
num_leaves=24
num_cat=0
split_feature=0 33 18 27 37 19 35 35 24 34 15 30 31 39 41 25 28 33 41 17 39 39 15
split_gain=6.27933 4.89574 4.77981 4.40317 4.39971 5.35234 4.00599 3.98803 3.8978 3.78014 6.59292 6.32784 4.53937 3.035 2.9392 3.82191 2.77424 2.22003 1.62677 1.59804 2.68791 1.37106 0.155958
threshold=0.046968524251805983 -0.1612280701754385 6.2385489456911083 2.867094017094018 0.52720091235995137 -2.2275675675675672 0.45765914576974492 0.42292587918903712 -0.23939872500724399 0.61853327228327226 2.9096973684210528 0.038131845774118468 0.73309523809523813 0.49998263768317247 0.53195771690144178 0.16798642533936683 0.50948292516030091 -0.18280303030303027 0.50000000000000011 0.1048431226970248 0.5052072884166412 0.50903195162129322 -0.45391288963496884
decision_type=2 2 2 2 2 2 2 2 2 2 2 2 2 2 2 2 2 2 2 2 2 2 2
left_child=3 8 4 9 5 -3 -5 -6 -2 10 12 22 -1 -13 15 -4 -12 18 -10 -8 -21 -16 -11
right_child=1 2 14 6 7 -7 19 -9 17 11 16 13 -14 -15 21 -17 -18 -19 -20 20 -22 -23 -24
leaf_value=-0.002952906522635251 0.019828923100443083 -0.029126345245244996 0.056600976614456393 0.011384087421867755 -0.013377681231450826 0.0024167022391732326 -0.060059967452468888 0.026330346280107577 0.0055394953079950047 -0.067444948250482875 -0.06397064434227763 -0.020024680005483977 0.028460459554598833 0.038762745773168732 0.022344419988328333 0.003730288865877673 -0.0058975865599828767 -0.066278057367104251 -0.040506759366782677 0.0065726945803848413 -0.049271460718555336 0.054568229502294313 -0.040260875272676355
leaf_weight=107.82820704579353 2.4565103799104691 10.349548637866972 2.5029492825269761 2.7343452572822562 5.0048294067382839 47.934092119336128 4.4932314455509168 17.910971008241177 2.1452338844537735 3.1605954021215439 3.7861771881580344 3.6157594919204712 7.791461080312728 2.1489360481500626 4.9974167197942716 15.243236333131788 2.2676502913236618 2.6244684308767301 2.3620541095733643 2.251948207616806 2.9873714298009872 5.0350467711687088 2.3150787502527219
leaf_count=479 11 45 13 12 22 216 20 84 10 13 16 16 36 10 26 74 10 11 10 10 13 29 10
internal_value=-0.00165932 0.00515034 0.00759405 -0.00724021 0.0026282 -0.00315624 -0.0299409 0.0174638 -0.0220031 -0.00505998 -0.00296183 -0.0271927 -0.000778669 0.00149505 0.0219047 0.0116868 -0.0433169 -0.0370401 -0.0180784 -0.0419555 -0.024846 0.0392905 -0.0575973
internal_weight=263.947 118.566 108.978 145.381 81.1994 58.2836 12.4669 22.9158 9.58827 132.914 121.673 11.2404 115.62 5.7647 27.7786 17.7462 6.05383 7.13176 4.50729 9.73255 5.23932 10.0325 5.47567
internal_count=1196 551 509 645 367 261 55 106 42 590 541 49 515 26 142 87 26 31 20 43 23 55 23
is_linear=0
shrinkage=0.04


Tree=30
num_leaves=21
num_cat=0
split_feature=24 33 33 37 33 17 37 14 35 9 10 30 9 10 41 0 9 28 36 36
split_gain=6.01609 5.75736 7.57425 6.67152 6.59711 5.49796 4.82749 4.76044 4.90968 6.37138 4.9803 4.6645 4.60956 4.55558 4.5526 3.51266 3.32215 3.06294 2.18319 1.1489
threshold=-0.06547619047619023 -0.17336996336996333 -0.19047619047619047 0.51327652049072592 -0.13065018315018309 1.3106356388709328 0.44864359988669161 -16.049656186598536 0.47637137487251918 -0.010147174073390273 5.6766081892757088 0.068927490603813771 -0.86420987549036432 5.3593060119047715 0.53615207030086398 0.019213152059750247 0.58019220846233222 0.51579999566000378 0.052406868050250473 0.077515740036113709
decision_type=2 2 2 2 2 2 2 2 2 2 2 2 2 2 2 2 2 2 2 2
left_child=7 2 3 6 15 14 -2 19 9 12 11 -10 -9 -11 -6 -3 -17 -12 -7 -1
right_child=1 4 -4 -5 5 18 -8 8 10 13 17 -13 -14 -15 -16 16 -18 -19 -20 -21
leaf_value=-0.059997922258629037 0.018171769992575092 0.066506437101111232 -0.062847479245770096 0.04297179048249921 -0.0032104054337855916 0.034017231745056796 -0.035595010855103727 -0.019574300916334022 -0.002713055744829588 -0.04225240274407778 -0.038175892550593588 -0.056729352609178635 0.030880431164741106 0.010930784215023951 0.018239649491603581 -0.016281665616852119 0.050852774890652368 0.0024045466850600339 0.00687643775090435 -0.018919886731539673
leaf_weight=3.3938177525997153 3.7714053690433529 4.0718357414007169 4.3848659694194785 3.6274601817131034 96.989159166812897 11.74260361492634 8.1290783733129484 3.4336747825145748 43.401518493890762 5.620640426874159 15.379596263170244 2.637482061982154 14.58924973011017 4.4576589167118073 18.809314265847206 2.4491306692361832 2.024996355175972 3.4445859640836707 8.7242037802934629 2.2744472622871399
leaf_count=15 17 19 18 17 432 65 35 15 194 24 67 11 68 20 87 11 10 16 45 10
internal_value=-0.00159891 0.00306082 -0.0170016 -0.00348019 0.00585701 0.00367202 -0.0182129 -0.00941673 -0.00716915 0.00668585 -0.0132343 -0.00601048 0.0209923 -0.0184601 0.000251977 0.0397887 0.0136765 -0.0305654 0.0227323 -0.0448222
internal_weight=263.357 164.724 19.9128 15.5279 144.811 136.265 11.9005 98.6327 92.9644 28.1012 64.8632 46.039 18.0229 10.0783 115.798 8.54596 4.47413 18.8242 20.4668 5.66827
internal_count=1196 756 87 69 669 629 52 440 415 127 288 205 83 44 519 40 21 83 110 25
is_linear=0
shrinkage=0.04


Tree=31
num_leaves=19
num_cat=0
split_feature=3 20 0 14 19 11 34 29 23 34 27 34 43 25 0 25 41 29
split_gain=6.49051 6.02625 5.72902 4.98875 4.50317 4.8624 4.47251 4.26822 4.1348 3.87505 3.67385 3.57054 3.54372 3.40919 4.74607 1.86679 2.4625 0.936249
threshold=-0.3116775599128539 2.6187599364069953 -0.047077922077922101 -10.832463111111108 2.3940296631473106 -3.8480069930069924 0.57673105595249285 0.48304808398868371 -1.2171048156104545 0.40232729624177005 1.1816954070558803 0.62648418574889175 5.5000000000000009 -0.71028530648095767 -0.10342624854819975 2.0805555555555557 0.53166300519580167 0.49424300821589573
decision_type=2 2 2 2 2 2 2 2 2 2 2 2 2 2 2 2 2 2
left_child=7 2 3 -2 5 -4 -5 8 -1 -9 -6 12 -11 -10 -15 17 -17 -3
right_child=1 15 4 6 10 -7 -8 9 13 11 -12 -13 -14 14 -16 16 -18 -19
leaf_value=-0.033345834645950902 0.029365162004660092 0.018013255719393228 0.036252744543381794 -0.013210257728194253 -0.018062313114202592 0.00019202070596884444 -0.057557074582610376 -0.061324415287286431 -0.018827384965887893 -0.019136570051125359 0.040629880616270979 -0.053633972242908674 0.0047998791298638566 0.071234008387541237 0.0071793144227862218 -0.017639771567884221 0.037853602860307728 0.057450999338809997
leaf_weight=2.9804705381393424 3.5787764638662329 1.8582455813884715 6.1711586713790885 26.572115778923038 1.9676762968301762 135.56587034463882 4.2465499937534323 3.0328087657690039 2.665090709924697 31.231508627533913 8.4074837118387205 3.4767960309982291 14.069626063108442 2.9935749471187574 5.0782658904790878 2.2681828290224075 2.5649878680706024 4.0492518693208694
leaf_count=13 16 10 31 116 9 612 18 13 12 141 42 15 63 14 23 11 15 22
internal_value=-0.00153981 0.00206726 0.000360196 -0.0143342 0.00371658 0.00181474 -0.0196166 -0.0124452 0.00714779 -0.0177135 0.0290507 -0.0148002 -0.0116201 0.0189615 0.0320055 0.0310643 0.0111703 0.0462178
internal_weight=262.778 197.25 186.51 34.3974 152.112 141.737 30.8187 65.5281 13.7174 51.8107 10.3752 48.7779 45.3011 10.7369 8.07184 10.7407 4.83317 5.9075
internal_count=1196 902 844 150 694 643 134 294 62 232 51 219 204 49 37 58 26 32
is_linear=0
shrinkage=0.04


Tree=32
num_leaves=21
num_cat=0
split_feature=24 33 33 33 33 17 26 12 0 24 23 37 33 0 34 14 43 33 17 38
split_gain=5.47543 5.21154 7.0239 6.12257 6.05957 4.98892 4.55869 5.25937 4.80167 4.17647 4.06501 3.99342 3.67186 3.23573 3.20191 3.1225 2.30843 1.54531 1.43248 0.542963
threshold=-0.06547619047619023 -0.17336996336996333 -0.19047619047619047 -0.13065018315018309 -0.22166666666666654 1.3106356388709328 9.6381286726998443 -1.692357932875667 0.19112011496547046 -0.017093023255815073 2.0256319290465639 0.51968181331800067 0.036060606060606022 0.019213152059750247 0.51502386971380421 1.1811449358056267 4.5000000000000009 -0.26619047619047609 0.44489130434782492 0.51339229046531043
decision_type=2 2 2 2 2 2 2 2 2 2 2 2 2 2 2 2 2 2 2 2
left_child=6 2 4 13 11 9 7 12 10 -5 -9 -2 17 -3 -7 -15 19 -1 -6 -8
right_child=1 3 -4 5 18 14 16 8 -10 -11 -12 -13 -14 15 -16 -17 -18 -19 -20 -21
leaf_value=-0.014713230067254942 -0.032554037576140608 0.064090937523815381 -0.060518302011191329 0.06916188369600626 0.055972085481174542 0.038737889364113681 0.022030709501959966 -0.0094874862401234782 -0.054074167446749984 -0.0005270143059556146 0.014518776774676761 0.024797658462598193 0.0020275355605582392 0.046120605009501554 0.0063124526616791998 -0.018787742334163526 -0.0061584725900016256 -0.055107795819989633 0.0087436503798582355 0.058444873581359372
leaf_weight=2.3567756563425055 8.4979657530784589 4.0563000887632352 4.3476570695638648 1.2922099381685246 2.3680305629968652 9.464683875441553 1.973207384347915 61.760687187314034 3.2719413489103308 114.26492564380169 13.604999929666517 2.3494885265827188 3.1272142082452765 2.2386917024850845 10.743464104831217 2.219393253326416 2.3607268035411835 7.7125500589609137 2.2351768761873245 1.9502934664487837
leaf_count=11 37 19 18 6 11 54 10 274 14 513 62 11 14 11 56 10 11 34 10 10
internal_value=-0.00147985 0.00297168 -0.0161704 0.00563547 -0.00312515 0.00352541 -0.00896008 -0.0112515 -0.0072425 0.000276817 -0.00508738 -0.0196536 -0.0346057 0.0383854 0.0218122 0.0132261 0.0235501 -0.0462842 0.0345634 0.0421283
internal_weight=262.196 164.078 19.7983 144.28 15.4507 135.765 98.1184 91.8342 78.6376 115.557 75.3657 10.8475 13.1965 8.51439 20.2081 4.45808 6.28423 10.0693 4.60321 3.9235
internal_count=1196 756 87 669 69 629 440 409 350 519 336 48 59 40 110 21 31 45 21 20
is_linear=0
shrinkage=0.04


Tree=33
num_leaves=21
num_cat=0
split_feature=3 20 34 17 11 14 7 26 3 29 17 22 16 23 37 20 34 25 41 29
split_gain=5.91745 5.46776 5.23664 7.64236 5.1402 4.92058 4.56759 4.41909 3.43551 4.50815 4.04327 3.4259 2.96605 2.63267 2.57813 2.27504 2.03137 1.80169 2.29738 0.910586
threshold=-0.3116775599128539 2.6187599364069953 0.6004734145490308 0.42509178321678492 -3.8480069930069924 -8.0832518690441102 1.0000000180025095e-35 12.480502375319682 -0.37809065934065939 0.48352781599928224 -0.27361111111111119 -7.2542941300366328 -0.71666666666666601 -1.1541935483870969 0.51757906805943954 1.7404489795918372 0.53521984551396329 2.0805555555555557 0.53166300519580167 0.49424300821589573
decision_type=2 2 2 2 2 2 2 2 2 2 2 2 2 2 2 2 2 2 2 2
left_child=7 2 4 12 15 -6 -5 8 9 13 -11 -10 -4 -1 -9 -2 -13 19 -19 -3
right_child=1 17 3 6 5 -7 -8 14 11 10 -12 16 -14 -15 -16 -17 -18 18 -20 -21
leaf_value=-0.021734741615562242 0.057718408371654081 0.017093936279445419 -0.0030377803334840242 -0.027270610709020468 -0.016455314552531315 0.0041293764849601525 0.034800490745300158 0.053667967807960182 0.00055128305037660291 -0.029649628628730041 -0.0031356351782147697 -0.061304059601640024 -0.051274659826037919 0.025531179151264523 -0.0045360955524490106 0.0021496335690968111 -0.021897967719569988 -0.017414974039494692 0.03656338589119898 0.056224281325679686
leaf_weight=2.3201715499162674 3.7400317043066016 1.8386676013469676 2.9062317758798608 2.9145348519086829 21.297929763793945 139.52551478147507 4.8730389475822449 2.3670848906040183 3.3985981345176688 17.975104898214337 19.570030182600025 5.4839930981397611 8.7089844942092896 7.6416095197200757 2.1486103385686874 1.9344676882028577 4.2629027217626572 2.2612146586179733 2.4955605119466782 3.9458070248365402
leaf_count=10 20 10 13 13 93 635 24 13 15 81 87 24 37 35 10 9 19 11 15 22
internal_value=-0.00141899 0.00202965 0.000411378 -0.0191744 0.00272795 0.00136995 0.0110117 -0.011863 -0.0147563 -0.00958994 -0.0159808 -0.0329117 -0.0396757 0.0140185 0.025609 0.0398327 -0.044873 0.0299207 0.01025 0.0449678
internal_weight=261.61 196.442 185.901 19.4028 166.498 160.823 7.78757 65.1681 60.6524 47.5069 37.5451 13.1455 11.6152 9.96178 4.5157 5.6745 9.7469 10.5412 4.75678 5.78447
internal_count=1196 902 844 87 757 728 37 294 271 213 168 58 50 45 23 29 43 58 26 32
is_linear=0
shrinkage=0.04


Tree=34
num_leaves=20
num_cat=0
split_feature=0 0 33 12 0 7 21 27 33 33 31 35 23 34 23 34 10 36 9
split_gain=5.03676 4.03608 5.21606 4.60413 4.36055 3.97769 5.74901 5.05747 6.22748 4.96027 4.50798 5.87423 4.17659 3.27503 4.33461 3.26824 3.22922 2.80034 2.10093
threshold=0.046968524251805983 0.052694645779752143 -0.1612280701754385 -0.17845693779904312 0.14690873819163297 3.5000000000000004 0.065078216989065588 -2.3290003377237403 0.040057997557997556 -0.13666666666666666 0.73309523809523813 0.48816039318953391 -2.5292825814536335 0.47281558887922986 -0.33068643423482119 0.5200523088023089 -4.5167529837398268 -0.039642366124675858 -0.33678321678321671
decision_type=2 2 2 2 2 2 2 2 2 2 2 2 2 2 2 2 2 2 2
left_child=5 -2 13 16 -5 7 -7 8 12 -8 15 -12 -1 -3 -15 -9 -4 -10 -11
right_child=1 2 3 4 -6 6 9 10 17 18 11 -13 -14 14 -16 -17 -18 -19 -20
leaf_value=0.0062600275903258893 0.049724794477070199 -0.055461900431983027 -0.039314685258677311 0.018593348269460401 0.0011098879609427604 0.0194516734137045 0.0020497348438888582 -0.0027599366792943783 -0.04214129068915639 -0.020656006609342144 0.04861662304033619 -0.012234399027334291 0.072199610791836469 0.030096819737105568 -0.040547313482929385 -0.017136808741299771 0.0010029103098626645 0.010755306473214425 -0.064701417660426447
leaf_weight=2.7402044683694839 3.0241268873214713 3.4892044663429242 5.4867648631334305 42.178082957863808 50.771103657782078 3.5214219689369228 3.5828802734613427 57.810647666454315 2.3540928661823273 2.9182828366756439 5.0729208141565305 4.7642855197191238 3.9458361566066724 2.6342815458774567 2.6934408992528915 46.087168231606483 6.932259261608122 4.344836637377739 6.6106102019548381
leaf_count=13 15 15 24 199 242 17 16 259 10 13 24 21 19 12 12 205 32 20 28
internal_value=-0.00136498 0.0047675 0.00349937 0.00601094 0.0090979 -0.00639275 -0.0247735 -0.00393867 0.0191528 -0.0370111 -0.00670578 0.0189166 0.0462549 -0.0257978 -0.00496955 -0.00918606 -0.0166618 -0.00759135 -0.0519823
internal_weight=260.962 117.209 114.185 105.368 92.9492 143.753 16.6332 127.12 13.385 13.1118 113.735 9.83721 6.68604 8.81693 5.32772 103.898 12.419 6.69893 9.52889
internal_count=1196 551 536 497 441 645 74 571 62 57 509 45 32 39 24 464 56 30 41
is_linear=0
shrinkage=0.04


Tree=35
num_leaves=21
num_cat=0
split_feature=24 41 38 38 41 12 17 34 30 34 14 17 24 7 38 32 30 2 11 34
split_gain=4.72086 4.26104 5.81606 7.24771 6.19958 4.55517 4.17411 4.39562 4.32687 4.40748 4.11956 4.07115 4.06982 3.71652 4.11068 4.02997 3.41257 2.77972 2.34639 1.21863
threshold=-0.06547619047619023 0.53615207030086398 0.53292663591262801 0.54094268659486056 0.53979259674404156 -0.077927097057531189 1.3106356388709328 0.52794930559636455 0.093365634876550294 0.6312528845080333 -16.049656186598536 0.23283119658119714 -0.12764155712841327 4.5000000000000009 0.51209415289593918 0.31726190476190486 0.027554678962921828 0.46475161017843952 -0.023406055031195191 0.50645177332066449
decision_type=2 2 2 2 2 2 2 2 2 2 2 2 2 2 2 2 2 2 2 2
left_child=10 6 4 -4 5 -3 8 17 9 -2 19 -6 13 15 -15 -12 -9 -8 -14 -1
right_child=1 2 3 -5 11 -7 7 16 -10 -11 12 -13 18 14 -16 -17 -18 -19 -20 -21
leaf_value=-0.057622229137036664 -0.0020974487781437352 0 -0.071999634167341856 0.023970054774213771 0.050394340051700411 0.05240384661975022 0.053808281188152417 -0.023079436716498109 0.050050997566337053 -0.036580014128286556 -0.04197792089524701 -0.010705356692328012 -0.061038219144958078 0.063545156322678528 -0.004240405546812492 -0.0038896392555976518 0.030407014518521316 0 -0.006758850972376218 -0.015289605640433449
leaf_weight=3.2590970396995536 108.25235393643379 3.2909275740385082 2.3802964091300955 2.3981620073318481 2.0581274032592765 11.526553466916086 5.8298333436250669 4.7864011079072952 2.3087836354970923 6.2059363573789588 4.6607474386692038 8.9614913016557676 3.2078532576560974 2.561057284474372 2.8534735590219498 76.220321953296661 3.0171618238091469 2.0180231034755707 2.4125438779592505 2.2022431194782257
leaf_count=15 485 15 10 12 10 58 34 23 11 27 20 43 14 13 14 343 17 11 11 10
internal_value=-0.0013122 0.00283163 0.0162565 -0.0235114 0.0238279 0.0406419 -0.000251976 0.0190447 -0.00288681 -0.00403231 -0.00828683 0.000697048 -0.00620565 -0.00398321 0.0276675 -0.00618299 -0.00177032 0.0400074 -0.0389636 -0.0418531
internal_weight=260.411 163.034 30.6156 4.77846 25.8371 14.8175 132.418 15.6514 116.767 114.458 97.3773 11.0196 91.916 86.2956 5.41453 80.8811 7.80356 7.84786 5.6204 5.46134
internal_count=1196 756 148 22 126 73 608 85 523 512 440 53 415 390 27 363 40 45 25 25
is_linear=0
shrinkage=0.04


Tree=36
num_leaves=20
num_cat=0
split_feature=3 1 41 7 35 3 12 26 31 38 0 39 8 37 14 29 33 28 41
split_gain=5.17235 5.04777 4.74594 5.77486 5.58568 5.36004 6.15632 4.13383 4.94844 6.47483 5.93191 4.37011 4.09866 4.01586 2.89636 2.68248 2.21835 1.37868 0.141674
threshold=-0.3116775599128539 6.3316209289487029 0.52404604225796292 4.5000000000000009 0.59916617287940832 -0.14550264550264544 1.3143915866741955 9.6381286726998443 0.44849206349206355 0.54979080634644661 -0.19241452991452984 0.52270724410498526 1.3663646235521238 0.49720149641406225 3.0359399635604238 0.48059485989756823 -0.018391053391053399 0.49812948831713216 0.5380801933195366
decision_type=2 2 2 2 2 2 2 2 2 2 2 2 2 2 2 2 2 2 2
left_child=7 2 3 4 -2 13 -7 8 15 10 -10 16 -5 -4 -11 -1 -9 -17 -3
right_child=1 18 5 12 -6 6 -8 11 9 14 -12 -13 -14 -15 -16 17 -18 -19 -20
leaf_value=0.0081771705994117504 -0.0047217659718671989 0.050432421380795962 0.0065171953807722409 0.028323120140446859 -0.033904365054454731 -0.0030087052356103047 0.022915382147174371 0.023952779190404568 0.035950446289407446 0.068278720266428089 -0.020009584327684932 0.047886855984278623 -0.012486164698874163 0.057275755500299466 0.0084060269583372382 -0.021829729793777883 -0.027070517593633815 -0.046970724035715901 0.023820402325853713
leaf_weight=2.1968213021755245 77.682072147727013 3.0411303862929335 4.7674905359745008 12.73273502290249 12.152385622262953 52.070024788379669 20.190983399748802 2.0097036808729172 3.2717363536357871 2.1270564347505561 27.242596417665485 3.5303254723548889 5.4542032033205023 5.7027054280042648 3.6032606959342957 7.004923582077029 3.5785636305809003 9.9960965961217862 1.4832617118954656
leaf_count=10 350 19 21 61 52 237 101 10 15 10 121 18 25 27 16 32 16 46 9
internal_value=-0.00126491 0.00196365 0.000940634 -0.00455567 -0.00874724 0.00816224 0.00420132 -0.0110801 -0.015218 -0.00634779 -0.0137811 0.0135376 0.0158645 0.0348221 0.0321064 -0.0316376 -0.00791935 -0.037034 0.0432768
internal_weight=259.838 195.277 190.753 108.021 89.8345 82.7312 72.261 64.5611 55.4425 36.2446 30.5143 9.11859 18.1869 10.4702 5.73032 19.1978 5.58827 17.001 4.52439
internal_count=1196 902 874 488 402 386 338 294 250 162 136 44 86 48 26 88 26 78 28
is_linear=0
shrinkage=0.04


Tree=37
num_leaves=17
num_cat=0
split_feature=3 20 0 14 34 19 41 27 36 27 28 32 28 28 36 24
split_gain=4.78631 4.88916 4.72871 4.6522 4.30289 3.96847 3.7696 3.36562 3.2951 2.90426 3.49374 4.48657 3.62861 2.31183 1.49832 2.24382
threshold=-0.3116775599128539 2.6187599364069953 -0.048809523809523851 -10.832463111111108 0.54505096483037674 2.3940296631473106 0.53036300320248941 1.1816954070558803 -0.1801688000032414 -2.746061066904995 0.53458037477254805 0.68260577915376686 0.54490343813754683 0.50921206901832794 0.068227232443690125 4.139876215738286
decision_type=2 2 2 2 2 2 2 2 2 2 2 2 2 2 2 2
left_child=8 2 3 -2 -5 6 -4 -7 -1 13 11 -11 -12 -10 15 -3
right_child=1 14 5 4 -6 7 -8 -9 9 10 12 -13 -14 -15 -16 -17
leaf_value=-0.050000711328851068 0.028848437428148879 0.055057777202609091 -0.0030119899762100265 -0.010253961135253477 -0.047593349489019075 -0.017722698696024157 0.010771579880837134 0.038729989185208563 0.046841715571703343 -0.0087417877609122872 0.05821789298627765 -0.039378751598101863 -0.0040563075587378887 -0.0053588564088794047 0.0016176703635987139 0.0082940416828711176
leaf_weight=3.1824797540903083 3.5643764585256568 4.6067754998803121 93.965795919299126 22.975266158580784 6.3961656540632239 1.9505198150873173 47.66618537902832 8.2034095525741559 2.4913329929113379 39.941496506333351 2.0877868831157675 9.5823145061731321 4.3846501708030701 2.5621183812618256 2.7384167835116386 2.9250163584947586
leaf_count=14 16 27 425 101 28 9 223 42 12 183 10 43 20 12 15 16
internal_value=-0.00121065 0.0018924 0.000369906 -0.0133212 -0.0186549 0.00337386 0.00160297 0.0274285 -0.0106812 -0.00848766 -0.0111618 -0.0148177 0.0160028 0.0200092 0.0286229 0.0377676
internal_weight=259.224 194.992 184.722 32.9358 29.3714 151.786 141.632 10.1539 64.2322 61.0497 55.9962 49.5238 6.47244 5.05345 10.2702 7.53179
internal_count=1196 902 844 145 129 699 648 51 294 280 256 226 30 24 58 43
is_linear=0
shrinkage=0.04


Tree=38
num_leaves=18
num_cat=0
split_feature=3 1 11 29 6 10 29 10 39 21 25 37 42 1 36 37 41
split_gain=4.42991 4.61429 4.44693 4.50653 5.32385 3.88879 3.51593 3.46807 3.31653 2.98391 4.47015 3.16848 2.99762 2.70193 2.04842 2.03314 0.152806
threshold=-0.3116775599128539 6.3316209289487029 -3.8480069930069924 0.49169377754987315 1.0000000180025095e-35 5.1123295008694862 0.48304808398868371 4.8020597650723404 0.48055366361484275 0.57691729323308272 1.0214309715821803 0.47883632423948758 0.60769230769230786 -0.93327772605301529 -0.029781357757351631 0.51180357038329183 0.5380801933195366
decision_type=2 2 2 2 2 2 2 2 2 2 2 2 2 2 2 2 2
left_child=6 2 15 4 -4 -5 7 8 -1 10 12 -12 -8 -9 -11 -2 -3
right_child=1 16 3 5 -6 -7 9 13 -10 14 11 -13 -14 -15 -16 -17 -18
leaf_value=-0.036673930778934209 0.008433696331743061 0.049352093790216947 0.00090483363913030506 0.0081335626552763145 -0.02410996442351615 -0.0072852507805135584 -0.021841756895786314 0.054904530980766031 0.019210109657913355 -0.061440562499960057 0.063471832167334236 -0.00083318671649417364 0.003868235518806263 0.0034634443882421381 -0.016721269730436673 0.056527867847145405 0.022414896630424438
leaf_weight=3.8268164992332441 2.9726531505584708 2.9205349981784812 31.101713798940182 93.364938274025917 23.702130049467087 36.014575831592083 29.275513663887978 3.0731765776872635 2.811227560043335 3.4350988566875458 1.9083705246448506 2.8362384289503098 9.2699460387229902 3.7696179747581482 3.8518301993608466 3.1167234182357788 1.4475991949439047
leaf_count=17 15 19 144 431 104 163 134 15 13 15 10 13 42 17 18 17 9
internal_value=-0.00116349 0.00182278 0.000857325 -0.000241677 -0.00986518 0.00380832 -0.0102884 0.00762377 -0.0124794 -0.0151473 -0.0109781 0.0249821 -0.0155611 0.0276004 -0.0388901 0.0342116 0.0420218
internal_weight=258.699 194.641 190.273 184.183 54.8038 129.38 64.0578 13.4808 6.63804 50.577 43.2901 4.74461 38.5455 6.84279 7.28693 6.08938 4.36813
internal_count=1196 902 874 842 248 594 294 62 30 232 199 23 176 32 33 32 28
is_linear=0
shrinkage=0.04


Tree=39
num_leaves=21
num_cat=0
split_feature=3 20 34 17 31 19 37 7 26 31 0 38 39 16 29 26 31 31 20 2
split_gain=4.10421 4.50387 4.5146 6.73975 5.81003 6.4631 6.42601 4.26181 3.74281 4.51172 5.78563 5.63811 3.99208 2.63566 2.47738 1.71475 1.70037 4.15968 3.55447 1.38085
threshold=-0.3116775599128539 2.6187599364069953 0.6004734145490308 0.42509178321678492 0.69855727605727613 2.1292788461538463 0.43971141538194214 1.0000000180025095e-35 9.6381286726998443 0.44849206349206355 -0.19241452991452984 0.54979080634644661 0.52270724410498526 -0.71666666666666601 0.48059485989756823 12.480502375319682 0.64734432234432238 0.52773723860680388 3.4603576248313099 -0.36569264069264057
decision_type=2 2 2 2 2 2 2 2 2 2 2 2 2 2 2 2 2 2 2 2
left_child=8 2 4 13 5 -2 -6 -5 9 14 -11 -12 15 -4 -1 -10 17 -3 -19 -16
right_child=1 16 3 7 6 -7 -8 -9 12 10 11 -13 -14 -15 19 -17 -18 18 -20 -21
leaf_value=0.00847664441503144 -0.0035402380766767195 0.053779043525651195 -0.0026631161877738842 -0.026511292033449669 -0.035033988195192128 0.024862153362633754 0.027958471136979392 0.033737117139106335 -0.031436905618080581 0.039888262780366522 -0.018508563617682671 0.026874615614133037 0.046695695812227225 -0.048446173547897431 -0.01668465370261512 0.012010764593931305 0.050970882420619694 0.029668747757064944 -0.042698081633658722 -0.043275960071836289
leaf_weight=2.1869608163833645 126.60851189494133 2.5875941291451436 2.8814127892255792 2.8954523205757132 2.8030024915933636 14.153777629137037 21.593490958213806 4.7941043227910995 2.4826814979314786 3.8780225068330756 26.963737204670906 5.0724902153015128 3.4800928384065628 8.5758786350488663 5.3713096231222197 3.0828298032283783 3.3720467612147331 1.8529814556241033 2.2808788418769836 11.238151222467419
leaf_count=10 569 15 13 13 13 70 105 24 11 18 121 23 18 37 25 15 22 11 10 53
internal_value=-0.00111413 0.00175761 0.00030401 -0.0180057 0.00246047 -0.000640332 0.0204443 0.0104884 -0.00992204 -0.0138987 -0.00542079 -0.011137 0.0135816 -0.0374009 -0.0297713 -0.00687728 0.0276444 0.0147798 -0.00938067 -0.0350673
internal_weight=258.155 194.399 184.306 19.1468 165.159 140.762 24.3965 7.68956 63.7563 54.7107 35.9142 32.0362 9.0456 11.4573 18.7964 5.56551 10.0935 6.72145 4.13386 16.6095
internal_count=1196 902 844 87 757 639 118 37 294 250 162 144 44 50 88 26 58 36 21 78
is_linear=0
shrinkage=0.04


Tree=40
num_leaves=19
num_cat=0
split_feature=24 33 33 33 33 3 33 13 14 35 15 14 35 25 37 15 34 39
split_gain=3.9315 4.24668 6.32729 5.96378 5.31553 4.17919 4.75995 4.67624 3.80116 4.15011 3.85332 6.00709 5.34379 3.51675 3.41959 1.3838 1.19871 1.13508
